<?xml version="1.0"?>
<opencv_storage>
<opencv_ml_dcnn>
  <layer_sizes>2</layer_sizes>
  <activation_function>SIGMOID_SYM</activation_function>
  <model_params>
    <train_method>BACKPROP</train_method>
    <dw_scale>1.</dw_scale>
    <moment_scale>1.</moment_scale>
    <filter_dim>9</filter_dim>
    <filter_num>20</filter_num>
    <pool_dim>2</pool_dim>
    <image_dim>28</image_dim>
    <hidden_num>2000</hidden_num>
    <classes_num>10</classes_num>
    <conout_num>20</conout_num>
    <term_criteria>
      <epsilon>1.0000000000000000e-02</epsilon>
      <iterations>1000</iterations></term_criteria></model_params>
  <training_params>
    <alpha>1.0000000149011612e-01</alpha>
    <batchSize>256</batchSize>
    <epochs>3</epochs>
    <lambda>3.0000001424923539e-04</lambda>
    <momentum>9.4999998807907104e-01</momentum></training_params>
  <cov_weight>
    -1.5747836625793696e-03 1.3378420511334321e-01
    1.6827458572255502e-01 6.6915307092823340e-02 8.9412520288477959e-02
    2.6460483034692928e-01 8.3022644156860698e-02
    -2.6610644241164216e-02 1.7488018467651831e-01
    -1.6118058273674746e-01 -1.7058257968300475e-01
    9.8898609762955267e-02 -5.0763275240705653e-02
    2.6363247930678241e-01 7.9313727147004021e-02 1.1949703455696863e-02
    9.3830473702221320e-02 2.3544236946140065e-02
    -2.9316471879934608e-01 -3.5938152709534266e-01
    -2.1781971775291720e-01 -7.0980921447669834e-02
    -1.8273085165607719e-01 2.4199285600700990e-02
    5.1711098819020106e-02 -1.5873468774281566e-01
    -5.7448275010603150e-02 -3.6855851101245407e-01
    -3.9374864742767679e-01 -4.1644564946267942e-01
    -1.9402580759868854e-01 -2.3712527285818610e-01
    -2.4724039524125596e-01 -4.0320667720994779e-01
    -3.1169073778241951e-01 -4.7682612715904332e-01
    -4.1155705754757710e-01 -4.9073113018056519e-01
    -4.1121298057235173e-01 -4.1841567610994362e-01
    -5.3680143600970287e-01 -2.5616643185171367e-01
    -3.5983054978083362e-01 -1.9139368347699667e-01
    -3.7395866836993258e-01 -1.1170476846096300e-01
    -3.0819108281209912e-01 -1.6307168114520601e-01
    -2.2324931684649910e-01 -2.1488115715301492e-01
    -2.9758854228967191e-01 -2.7909688654957426e-01
    -4.9007020316788791e-01 -1.1878418654697677e-01
    5.1600191724276372e-02 -9.4784773565586442e-02
    -1.3523229895833228e-01 -1.5489979573794513e-01
    -1.6344377682326000e-01 -5.6427782380893160e-02
    -1.9480529699801977e-01 -7.5449628758924220e-02
    -7.3457679085246572e-02 1.0029829793047691e-01
    1.6383791814857723e-01 1.5725428879995743e-01
    -2.7866752175288532e-02 -1.6779765813706205e-02
    6.1188885427713835e-02 1.4378279995715906e-01 3.1025282854568753e-01
    1.1392844976145486e-01 8.7808059730464613e-02 2.6883349985384786e-01
    2.4227541053000293e-01 1.9461663635947341e-01 1.9787285134439822e-01
    3.8727873319711159e-01 3.4993593523185595e-01 3.1041125602788905e-01
    1.2454700957829511e-01 1.8195515502368689e-01 1.4182855269797323e-01
    -8.4238139325263278e-02 -1.0442291576918011e-02
    -1.6767052614330999e-01 -2.5967311366051293e-01
    -1.0213238629420790e-01 -1.0152707228888082e-01
    -1.8989840643357342e-01 2.3383384763591764e-01
    -1.0735011478380239e-01 -3.6114786562314316e-01
    -3.1391619193524711e-01 -3.6770086493828180e-01
    -5.1373646299992659e-01 -2.9370682874045645e-01
    -4.6753786999998648e-01 -2.7425110392224350e-01
    -8.4756504494774218e-02 -2.6884126173510509e-01
    -4.3732816535324487e-01 -4.8773667408210536e-01
    -1.8193974772482768e-01 -4.4899144931844259e-01
    -4.6003939793941045e-01 -3.5290609968236147e-01
    -2.0680919361297131e-01 -3.7319602543768447e-02
    -2.2865899939657508e-01 -4.0180477220256988e-01
    -3.5321504672291826e-01 -3.3202615168641952e-01
    -3.0475135764872269e-01 -1.1361000264465025e-01
    -2.7979903319796889e-01 -1.4132646740531690e-01
    -5.5154166047600067e-02 -2.2259364049347385e-01
    -2.9518648089597743e-01 -3.6280722014292416e-01
    -1.4559701135543243e-01 -1.4170379531767377e-01
    -1.2113580138311161e-01 9.4765100923693751e-02
    -1.9873087234267381e-02 -9.5096000356784061e-02
    -1.2620400110499208e-01 -5.3628489268075508e-02
    -1.8690682996026764e-01 8.4560462157653726e-02
    1.1114800780697397e-01 4.0057622397468973e-01 2.7223834574428907e-01
    1.6200407671547140e-01 6.4657563469758150e-02 4.2937429344565542e-02
    1.1287847223352165e-03 3.5224812526635046e-01 2.9581371856048572e-01
    1.2000874952941028e-01 3.9397942052738766e-01 3.7387400752350319e-01
    1.5573372032269309e-01 1.6253476868214829e-02
    -5.8308207345035439e-02 1.9434373360300836e-01
    2.1960700794288043e-01 2.8205062937691816e-01 3.4491372408275572e-01
    -1.6745205740703512e-02 5.0269726248659774e-02
    -7.4800099341113507e-02 1.0546566630098306e-01
    1.2268943018767907e-01 1.8742118360750199e-02 1.9864753179063213e-01
    1.2559422652473415e-01 1.9183330439832440e-02
    -5.7953163064714076e-02 -1.9732194127510355e-01
    -4.0733480967663077e-01 -2.4656935209235911e-01
    -2.3784193804476170e-01 -6.5899180823272202e-02
    4.2505259598023357e-02 1.8415514057923613e-01
    -4.3306458336876297e-02 -1.3464054778421120e-01
    -1.3226125719969956e-01 -7.1258198290271094e-02
    -2.8480961437315960e-01 -3.3049348138759416e-01
    -1.7943885169808749e-01 4.6063484811268351e-03
    -1.2850081731124965e-01 1.8694841822678229e-01
    2.9395025277870910e-03 -1.2653218744210942e-01
    -3.2918203890651837e-01 -1.4002415265351470e-01
    -2.9397923943130450e-01 -1.5979000146281669e-01
    -1.5615956857065233e-01 3.5724162667274732e-02
    3.1849196626938824e-02 -2.9251331376702738e-01
    -1.4950840945516694e-01 -4.2015049319802977e-01
    -2.9752477780398706e-01 -2.3905393346694806e-01
    -2.7566234919977450e-01 -1.7384040154317795e-01
    -1.3008446739460117e-01 -3.3132167464203985e-02
    -2.2541424640415544e-01 -1.6776185124206230e-01
    -3.6424144412509557e-01 -3.1993959470874944e-01
    -1.4654162198184442e-01 -2.3379936202118348e-01
    5.0018805091667264e-02 2.3475763791084509e-03
    -1.6390833426719265e-01 -4.7096468638244550e-02
    -2.1833839769640864e-01 -2.9009200925981810e-01
    -2.8487553103287994e-01 -8.2115103944212203e-02
    -4.9845879462918359e-02 -5.7403749456702277e-02
    -8.9300593136282330e-02 1.1755882591835305e-01
    3.9728859468063423e-03 -2.3369225460621090e-01
    -3.6750596093788956e-01 -1.8390077561181120e-01
    -8.1313066941052031e-02 1.8327717427327625e-02
    -4.8505892579561317e-02 -5.6961438841159014e-02
    -2.9750210056084605e-02 -2.2754685291569907e-02
    1.8486257054442887e-02 -3.7896863024134819e-01
    -1.6158143059141405e-01 4.5982738853366990e-02
    -1.5888739573834237e-01 -1.8724444161366094e-01
    1.0875733617278294e-01 7.5104197744660414e-02 8.8914705790882245e-02
    -1.7104740382776248e-01 -9.8340542950287654e-03
    -1.4578047787876744e-01 -2.9140388757375634e-02
    -2.3010926994932074e-01 -1.0089383776763022e-01
    -1.3164741762732277e-01 -3.8970332118998759e-02
    1.3983053629753323e-02 1.5299253968208545e-01 1.3850614910552664e-01
    -2.4800907322394164e-01 -4.0875980307420456e-01
    -1.3696421137609818e-01 -2.2018957340713914e-02
    4.3855730097062812e-02 -1.0314881216917397e-01
    -2.1336972311023317e-02 -1.4001254513201492e-01
    -5.5481829957936164e-03 -2.5323141661798182e-01
    -2.9732235749196290e-01 -2.1954696523461703e-01
    -2.6318053088916715e-02 -8.2962779140490758e-02
    -2.0967518046692021e-01 -2.7918952821143900e-01
    -3.2386641993584253e-01 -2.1723583625502027e-01
    -2.3536032444017635e-01 -2.5333844574019382e-01
    -1.4128852329346095e-01 -1.7373684555816518e-02
    -1.5482274881360582e-02 -2.5111589726125721e-01
    -2.2888773464897524e-01 -2.5980021490249444e-01
    -1.3109300510006486e-01 4.8223613673124138e-02
    1.0633622186983410e-01 9.0339514329253801e-02
    -3.2755623777620466e-02 -5.3573780757760377e-02
    -2.4389781006131259e-01 -1.9510499148446303e-01
    -3.3494702809971366e-01 1.2145880787017441e-01
    2.6779439053047438e-01 2.6187377837753634e-01 9.0022884810144657e-02
    1.2005501618060518e-01 -2.1312960718925372e-01
    -1.6870114505586484e-01 -2.8426499481375200e-01
    -6.6785285606059730e-02 3.7730434881022556e-01
    5.8506544668363629e-02 3.5312720152755789e-01 2.0097300497861895e-01
    -7.8174432561083501e-02 -1.4901795089784517e-01
    -2.8559073117652223e-01 -7.5526194290462562e-02
    -4.8949263500298330e-02 2.3291900015146413e-01
    2.1781910788096787e-01 1.7853602483829851e-02
    -2.9872869195577644e-02 -1.3350771330547104e-01
    -2.3656628471288774e-01 -2.1555728254284884e-01
    -1.0447971784727106e-01 -7.4554323059320443e-02
    1.8444342187558566e-01 4.1960619868498840e-02 8.7656510216365308e-02
    -7.1530122936544649e-02 -3.2079114498131228e-01
    -1.7497757885080847e-01 -2.9319696624646358e-01
    2.6183786484918316e-03 2.6097468995570250e-01 2.0780785441620669e-01
    1.8482860417536981e-01 1.2676849431494922e-02
    -1.6107224808959708e-01 -3.0403348942199765e-01
    -2.8126264615969437e-01 -1.5927575509991812e-01
    3.5195134922461152e-02 1.3044250461693507e-01 1.7062312820714920e-01
    -7.8393985597615831e-02 -6.7858718461750206e-02
    -7.3853078785872578e-02 2.2925818912826669e-02
    -1.9057094970032920e-01 -4.5662599529510657e-03
    -1.0988967930146945e-01 -7.5117459202805340e-02
    -4.8003363431760392e-02 -1.0782099541840651e-01
    -1.7486658780873893e-01 -4.1560216742082441e-02
    -2.8993826380555613e-03 -1.1061753210426442e-01
    -2.8517113184896464e-03 1.1375236390325442e-02
    -4.8075131197968995e-02 -1.7043328734459620e-01
    -3.2539222170784077e-01 -2.1103836706103191e-01
    -2.1093395132485129e-01 -5.2168903103496984e-02
    -2.2756497309448080e-03 1.2732148591428077e-01
    -4.4300011096904283e-02 -8.2967049835738133e-02
    -2.6236201307996726e-01 -2.6469804192569124e-01
    -1.9619360910624692e-01 -2.0544741399761890e-01
    -9.9597280848631550e-02 2.2642596939927268e-01
    -1.3063773697358593e-02 2.1774170588753926e-02
    -1.5516422499326510e-01 -8.4281870013863253e-02
    -4.6441542102029815e-01 -3.2918303599011917e-01
    -1.0717209087942606e-01 -2.0938903854400115e-01
    2.0759820558845873e-01 1.5523483190660901e-02
    -4.8890116354180523e-02 -1.3488343649866291e-01
    -2.1842605656853420e-01 -1.5349171892250724e-01
    -2.0769690355096398e-01 -1.1123348399035853e-01
    2.3040266479397241e-02 1.0847834265555580e-01
    -9.5845936061130232e-02 -3.9478000053941503e-01
    -2.2789752758865003e-01 -2.5599746393143219e-01
    -2.5689871303156409e-01 -1.8645170577394093e-01
    -2.6884714123855707e-01 3.2826011655924692e-01
    1.6591240914893948e-01 -1.2416581196990235e-01
    -1.4014893226557948e-01 -3.4114161480628069e-01
    -5.2507503672010647e-01 -2.5481083553735673e-01
    6.8605733803988600e-02 6.1151702954213495e-02 8.7000211068387137e-02
    1.5154177988787759e-01 -9.3538191610685079e-02
    -7.9089932068679467e-02 -3.1035946169156442e-01
    -3.9080447594405177e-01 2.1501403209322104e-02
    1.0853232596336015e-01 2.2367130419271020e-01 1.6525385509867649e-01
    2.8463588409340740e-01 1.4464868405217762e-01 1.3527872591023304e-01
    -9.1428254459736819e-02 -9.9115214346603753e-02
    -1.7365626445068669e-01 -1.5721300128258084e-01
    -6.1765019832868057e-02 -3.7595608730859799e-02
    9.4647758826078551e-02 -2.5701664144141441e-02
    6.0078013784301623e-02 7.8988601391207058e-02
    -3.3895994391567846e-02 -2.3336504857743867e-01
    -4.0004431756873465e-01 -1.6062209762562754e-01
    -1.6790742435794240e-01 -6.8082443152443134e-02
    -1.6567980445765199e-01 -7.4120141678113524e-02
    -1.8823788984361359e-01 -1.9108393050445732e-01
    -2.6882902084229032e-01 -3.4046586611113905e-01
    -2.0733441521101784e-01 -1.5108698583591082e-01
    -1.7095383826768685e-03 -1.1073311819036185e-02
    -6.5808432293183006e-02 -7.7371331920724470e-02
    -4.9181482947173272e-01 9.6478037274872114e-02
    -1.2069504629785882e-01 -3.0558485056394302e-01
    -7.6447024774987535e-02 -8.5744184549520711e-03
    1.0280454646370443e-02 -2.1346642455618903e-01
    -3.2320186346979529e-01 -3.0334181752899220e-01
    -2.0331209493112690e-01 -1.4700166847506402e-01
    6.7120082075229515e-02 -2.4772315196936853e-01
    2.8028865932734438e-02 1.5621059373782545e-04
    -2.2061412663654328e-01 -3.3035154147901619e-01
    -3.4476690640606372e-01 1.1933446915236223e-01
    -1.0589589450539001e-01 2.2855580648605083e-02
    -6.0637231689482762e-02 -3.3932776903981066e-01
    -3.9018067303064223e-02 -5.0112597171908535e-01
    -4.4994840106208461e-01 -2.6774902234102910e-01
    8.2889789917289416e-02 -4.8989216731559954e-02
    -2.1034139241776738e-02 -8.4976565440894991e-02
    -1.3653488818896739e-01 -1.8520310216537628e-01
    -2.6443032453556087e-01 -2.0727882904841918e-01
    -6.4711822257815924e-02 1.1377769846967241e-01
    3.2738130785138285e-02 -9.9124761402797384e-02
    -1.1098104303444303e-01 -7.3230072954919914e-02
    -3.5709924992411229e-01 -1.7985209044847422e-01
    -1.9278681878734735e-01 -8.8253315974592975e-02
    3.2560477606857909e-02 2.9273225332804759e-02
    -2.2621532645572065e-01 -8.1477422219798090e-02
    -2.0955082565326269e-01 -3.8971002699467633e-01
    -2.0408301876673049e-01 -1.0543741779168184e-01
    -3.8074874315252263e-02 3.0723918222932656e-01
    7.5794286301260810e-02 3.5997808671083353e-01 4.7688589494159259e-02
    2.6895481425771089e-01 1.5528468824813024e-01 1.6788899640211402e-01
    -6.1365322843393456e-03 -7.1482185570250184e-02
    2.6947204847107559e-01 1.1196240750186216e-01 2.2475788315222267e-01
    1.3141021244003787e-01 1.2542517687169527e-01
    -7.1854853724456436e-02 -9.5280367530621191e-02
    -1.1285768353304181e-01 -3.3848005226138922e-01
    1.8171493057887594e-01 1.4314607248466082e-01 2.1333321610268707e-01
    -1.8168868405552013e-02 -6.4258206833192819e-02
    -1.7498772908734344e-02 -1.4735978001281400e-01
    -5.0369659330449179e-01 -3.6660972878128367e-01
    2.9664316178597570e-04 -1.5185309851678799e-01
    -2.1129515103582158e-02 -1.1484731027653114e-01
    -1.1657068641484267e-01 -3.1379201138273299e-01
    -4.1378441464705007e-01 -2.3820874360230351e-01
    -1.7667785877931183e-01 -1.7295393082664776e-01
    -1.9535820421358815e-01 -2.8021368294285370e-01
    -2.6685399564079459e-01 -1.7914124257187772e-01
    -3.4739811045450536e-01 -2.5623909931195304e-01
    -2.4318255283491344e-01 -1.7328449996792569e-01
    -5.4697020784906999e-02 -9.0931663155584749e-02
    -1.4106265571698709e-01 -2.3052993294879962e-01
    -3.0969415494248564e-01 -3.1621568905510716e-01
    -1.9958147464538872e-01 -3.0534614183233860e-01
    -1.1025948022608908e-01 1.4919145668815859e-01
    -2.7344566829616966e-02 -1.5146429538192001e-02
    -1.0963949490580062e-01 -2.2662495451161241e-01
    -1.2017746742005729e-01 -2.8786066681679101e-01
    -2.0741387906628786e-01 -3.9117485303149824e-01
    7.5708133702913571e-02 1.6027472178972413e-01
    -1.0238740408353809e-01 -7.6035118087941375e-02
    -2.4187268312919466e-01 -2.6177765015980592e-01
    -2.2473952901306551e-01 -1.8215342250175415e-01
    -1.4959366174512745e-01 2.3724640016150356e-01
    2.7305291020564598e-01 1.7737867748183933e-01
    -1.3712339292805653e-01 -9.6299871590361900e-03
    -1.7003036741154265e-01 -1.4507883503406793e-01
    -3.9132483073000413e-01 -6.5013920325462701e-02
    7.9046955667314012e-02 -4.1693527274883858e-03
    -2.1920594977985812e-02 1.0594301030380227e-01
    1.5343353782919464e-02 5.7542434301840244e-02
    -2.5849548953564033e-01 -3.1989533998020009e-01
    -3.0745471618558706e-01 -6.2949832757051113e-02
    4.0694608276583215e-02 7.8478402965550267e-02
    -2.0793425205257920e-01 -1.8108420627490676e-01
    -2.0333964368263835e-01 -3.1217415271788856e-01
    -3.9310363171031992e-01 -3.2796190922719326e-01
    -2.0368209266171250e-01 -3.5861157188684251e-01
    -2.4627157573580077e-01 -2.4095894068894949e-01
    -9.8630916565748267e-02 -2.4501846986135481e-01
    -2.6484438390552195e-01 -2.0237940873136775e-01
    -2.2910837866154984e-01 -4.2508900771869751e-01
    -3.0949576745136670e-01 -2.5043753312442107e-01
    -1.8334168343099100e-01 -9.3777232638648705e-02
    -1.3279993643864038e-01 -8.3897079780390404e-02
    -3.0194485251049463e-01 -2.0083722552242264e-01
    -2.6110882629193133e-01 -3.3881915222393677e-01
    -4.9137387465184917e-01 -2.1449080026264702e-01
    -2.1072793103456022e-01 -8.5350672111956447e-02
    1.6469208429481227e-01 -1.7442491647951394e-01
    -5.2323644223870334e-02 -3.8602226547739971e-01
    -1.7066441595375179e-01 -1.3501102698401206e-02
    1.1576304912884847e-01 -2.8483469956707236e-01
    -1.4974670213785821e-01 7.4401555184824886e-02
    -2.2604994226012412e-01 -5.3026918503049573e-02
    -6.4114869657887472e-02 8.3536686599059828e-02
    -1.2195314107255086e-01 -1.2317257897911302e-01
    -1.7146985483052304e-01 -1.4079885083288887e-01
    -9.4768349407765975e-02 -3.0349155947355111e-01
    -3.1913186130588889e-01 -5.0684957867978463e-02
    6.1232219758406009e-02 -1.2307083151159036e-01
    6.5702918439196401e-02 2.6278197879007819e-03
    -1.6262102228897282e-01 -2.8284626504428806e-01
    -2.3177543419444127e-01 -2.6043344110786054e-01
    4.1786233461077786e-02 -9.6180157760072479e-02
    1.0684743436478723e-02 -3.0042899101168016e-02
    9.7147320816373131e-02 -1.2967047407431825e-01
    -1.5952799126609521e-01 -3.0823709623570766e-01
    1.8590817690332186e-02 1.5859010911622792e-01 3.9069930519814106e-03
    8.1389141844642091e-02 1.5815761423245700e-01 1.0659674862537738e-01
    -2.4332401103116078e-01 -3.4346927941188957e-04
    -1.9346858959280430e-01 4.9898062832911969e-02
    -1.0981043260155723e-02 1.3849901110331328e-01
    -1.4503032874959956e-01 2.5242745815915939e-02
    -1.8140017080271059e-01 -1.9894503003093528e-01
    -1.4122368702723898e-01 -4.6895177745648199e-02
    -1.1828161654647414e-01 3.9236956171736621e-02
    1.9562933989796715e-04 -9.6663223137701149e-02
    3.4124527575498741e-02 -2.2096969265378502e-01
    -2.3965745414682421e-01 -4.5825836412420140e-01
    -2.7826570987390709e-01 -2.4377601587482839e-01
    -3.3985379749105663e-02 -2.4316188026813668e-01
    -1.0677425605927239e-01 -3.3092227886514164e-01
    -2.1604504450367817e-01 -3.4237940214560142e-01
    -4.3315931913568106e-01 -2.0621320740870028e-01
    -6.2416775790690396e-02 1.7713748330317297e-01
    2.2029078254169165e-02 -7.0529508695621190e-02
    -2.2558812006509618e-01 -2.8171665310448968e-01
    -3.8172642474245749e-01 -4.4907733606007461e-01
    -4.5274114382932462e-01 -9.5134764238204877e-04
    1.1653626339349804e-01 -1.1293658362844528e-01
    -1.2985090180265790e-01 -3.0369085839573473e-01
    -3.8654727132675182e-01 -2.9679875093396141e-01
    -2.1646325819940535e-01 -7.7288265890130228e-02
    1.4239513100092568e-01 -7.4674929052959763e-02
    -1.2650461320798387e-01 -2.9241103819911302e-01
    -3.6378672360104053e-01 -2.6661966577340862e-01
    -2.9645741271364551e-01 -5.0457579844557114e-02
    8.5180081275206015e-02 4.7520172515458653e-01
    -1.3881146339910083e-01 -2.9719833929890715e-01
    -3.5495643111222269e-01 -3.3384882576145086e-01
    -2.6946265015365339e-01 -1.2730398103498744e-01
    3.4385488443644302e-01 4.1555032784428864e-01 5.0628960901606990e-01
    -8.7226020426198023e-02 -1.9524499601910897e-01
    -2.4270264319679377e-01 -6.2587407148325433e-02
    -1.0068338928722126e-01 1.1696994445232525e-01
    5.0800793407440581e-01 5.0593227258217965e-01 4.9838676054321185e-01
    -2.0512794463851566e-01 7.2348996105417784e-02
    1.2327524939306422e-01 3.6451847413331329e-01 4.0578168342017862e-01
    5.7248302838686715e-01 5.4371906865996877e-01 4.9573772915571068e-01
    1.4700837972715997e-01 9.2773767654092520e-03 4.3268581109848728e-02
    4.7547859960645966e-01 4.9480171249590227e-01 7.2573041733501042e-01
    6.3938000909250381e-01 4.6414465815490197e-01 5.6028923974324563e-01
    4.1159252278969666e-01 1.7428068833518784e-01 2.4540950038971476e-01
    4.4385891849278097e-01 4.5267499905590858e-01 3.3716303232024197e-01
    3.1339220377309196e-01 5.2887330811297284e-01 5.6666099656955260e-01
    3.3080142666601198e-01 1.1745558720304296e-01 1.9767348190892667e-01
    9.5898998007641262e-02 8.8197272595912798e-02 6.2979692895317074e-02
    2.9992945501264523e-02 -1.5013130648681093e-02
    -4.3470877604801964e-02 2.9691177608283985e-02
    2.7793572280705281e-02 -2.3088562325650899e-02
    -2.7188118381353693e-01 -5.1898995304412177e-01
    -5.6229735410393888e-01 -5.6497345754323391e-01
    -3.8054701800771668e-01 -5.0910092400030471e-01
    -3.0976138849164292e-01 -2.9987569560655242e-01
    -5.9409151586894104e-01 -6.7836551435456860e-01
    -5.9496667347335486e-01 -7.3417683186442340e-01
    -6.5787725971720823e-01 -7.2949721030258607e-01
    -5.6291162313373677e-01 -3.6345422591505389e-01
    -4.4338206333722519e-01 -3.5459475732284196e-01
    -5.9285010607914845e-01 -4.0739427450797455e-01
    -7.2992149962979458e-01 -4.7262101837346243e-01
    -4.0456030025574552e-01 -4.6179490112671329e-01
    -3.7431589426619494e-01 -3.1931298992071744e-01
    -1.9214285410810492e-01 -3.8618533633446056e-01
    -2.9166389656029462e-01 -2.9206342459840190e-01
    -2.5564385486762098e-01 -1.7232421468450471e-01
    -3.6674295673035073e-01 -2.0957769670422090e-02
    -2.0103525302747829e-01 -1.5119786018755291e-01
    -1.6202489394658534e-01 -2.8760851934735022e-02
    -1.3634583841692489e-02 1.7704853868765610e-01
    1.0728061869951380e-01 1.1667070760286236e-01 1.1246814675872454e-02
    -2.4163876687452385e-01 -1.1621094543352602e-01
    -1.6020653933775043e-02 1.3129695373003547e-01
    -7.9115357450220219e-02 4.0787915350049900e-02
    2.0012918692236686e-01 -1.1560017476560225e-01
    -1.0781866558453022e-01 -1.5462290424411096e-01
    -1.8476234057123727e-02 1.4880514665216760e-01
    1.5339972091811588e-01 4.4429274094460784e-02 2.9145934260765803e-02
    -2.1969550715913025e-01 -3.1872534228103999e-01
    -2.5895583299943542e-01 -2.0078515468075064e-01
    -1.2808709117576503e-01 1.5462774634976253e-01
    2.1350723015463532e-01 7.1314942810272897e-02 1.8315996279498724e-02
    -2.0212398981793428e-01 -4.9511966802064711e-01
    -3.1230933112390891e-01 -2.2813015588294022e-01
    -6.8061577782582303e-02 -1.2484712141141718e-02
    2.0771223668356631e-01 4.2765879534348572e-02
    -1.5202781616102698e-01 -2.8825801894343056e-01
    -3.6876951383171913e-01 -2.2849396168259314e-01
    -1.9410899735249582e-01 1.9664819096644387e-02
    -9.1060754973034078e-02 9.4721395369089315e-02
    -1.2614600615083124e-01 -1.0073172818759252e-01
    -3.0618044287122514e-01 -3.7113296912469224e-01
    -1.9416794510726129e-01 -7.6186096973967582e-02
    -4.4683529887109157e-02 2.7235113676884890e-02
    -1.2207693316411219e-01 -8.9507532114993155e-02
    -3.3247696863935566e-01 -2.2134424965478011e-01
    -1.9942360462450889e-01 -2.1676353577361498e-01
    2.0438595204288534e-02 -1.0455205341855046e-02
    -8.8361954833223871e-03 -8.7428767888357531e-02
    -1.7184960983342623e-01 -3.0772441439528442e-01
    -3.5367407483956814e-01 -1.1841125929509565e-01
    -9.6370355217902062e-02 -8.6030509716910938e-02
    -6.5783460518613265e-02 -8.9287904485420955e-02
    -3.2289504353788440e-01 -1.6952459045948279e-01
    -2.3871442726222469e-01 -4.0229652292236229e-01
    -2.0304139957760539e-01 -3.6911980906990341e-02
    -3.3600668480591407e-02 6.2990931074715539e-02
    -1.2551337193469386e-01 -2.6948985137469134e-01
    8.3863164387088310e-02 -1.4095308901652609e-01
    -5.6258706108540751e-02 -5.3177646768653948e-02
    2.9653137431582346e-02 -4.9851130806498029e-02
    -2.1141119566041242e-01 -2.1942803127749042e-01
    -2.7200954456012016e-01 -1.1623736431052778e-01
    -1.5554115456086842e-01 -1.1701635173524676e-01
    -2.9335963913148085e-02 -2.5817450260627417e-01
    -3.3043418592960061e-01 -2.6531338707186664e-01
    -5.4644955468835597e-02 -2.4237563479873678e-01
    -7.2208604432943135e-02 -2.8720262825402193e-01
    -1.9912333946896968e-02 -7.4868511334979251e-02
    -2.6080514131375271e-01 -8.2408976197563086e-02
    -2.2116232799310315e-01 -2.0307256659020934e-01
    -1.0919487010546658e-01 6.5610015789289988e-02
    1.4367205628310928e-01 -6.1115856487193657e-02
    -3.2452411195002828e-01 -2.1215587435093528e-01
    -2.3814924676926380e-01 -8.8384529892942112e-02
    -3.6561770389162460e-02 1.5389385476229184e-01
    1.2833140977898042e-02 1.2288572150252540e-01
    -4.3824137737753593e-02 -1.3018971532544807e-01
    -3.2853461625393787e-01 -3.2261528710770943e-01
    -2.2595951401052397e-01 -1.7435415205362437e-01
    1.2081041942088570e-01 2.9042107484821878e-02 9.8221262227643727e-02
    -4.2524416710156693e-02 -2.7481639667096458e-01
    -4.2861825866936842e-01 -1.7480521386283771e-01
    -1.7138896467863349e-01 3.3400440425864646e-02
    3.0448298201491208e-01 2.0100555324436450e-01 1.2236656019604002e-01
    -1.1124087646009913e-01 -3.1005390680670725e-01
    -4.5749201255665189e-01 -3.4153354663391744e-01
    1.0663384111726533e-01 -2.8104682061527542e-02
    1.4414694215441923e-01 -1.6784199624090994e-02
    1.0592005772463983e-01 -9.5466364082631552e-02
    -1.5912129884314202e-01 -2.6335585188380911e-01
    -5.5294210209528093e-02 -3.6293589694373893e-02
    3.2815449708986316e-01 2.3323855387358475e-01 6.4615558346187554e-02
    1.1479255566120831e-01 -4.7095588076279712e-02
    -2.2385825845385776e-01 -2.6540380706722799e-01
    -7.8839523773260298e-02 -2.3838994753406586e-02
    2.4085148168132586e-01 2.5863563307479831e-01 7.5128693765699181e-02
    -4.4405248441391001e-02 -2.3826424494198570e-01
    -1.7390244075297054e-01 -2.5122234561401252e-01
    7.4061791541298508e-02 3.5864751902407364e-02
    -1.8602970337901889e-01 1.7003811374615208e-01
    -7.9055320876079721e-02 -5.4179162727739115e-02
    2.5618461952612132e-01 8.7778477399502092e-02 1.6650910023680987e-01
    1.1733237936545747e-01 5.3872393701629502e-02 2.5362934989205183e-01
    1.3788129181358688e-01 1.2175095658117376e-01 8.2330413236911204e-02
    4.8645711578002244e-02 2.6633715369346417e-01
    -4.2435616560807564e-03 2.8296377551725532e-01
    7.6443403282528286e-02 2.0260708498656116e-01 1.1095547849434355e-01
    1.3117989963674700e-01 1.1648942848082898e-01
    -5.5535182951027849e-02 8.7084437384733052e-02
    -2.1611232941257705e-01 -2.3893301990467453e-02
    2.1861661434469833e-02 -6.8280546687342486e-02
    1.1531407864312124e-02 -1.4307570099634623e-01
    5.6680266549094145e-02 6.4831320257262195e-02
    -7.0459586522111678e-02 -1.9490607934772755e-01
    -1.5177536333547881e-01 -1.7634981120536289e-01
    -2.5078037334435505e-01 -2.2100860741019421e-01
    -1.3662645588389094e-01 -1.9929160785402686e-01
    -1.9065687671273748e-01 -2.4190782023616561e-01
    -3.3989717307674167e-01 -1.4925126330385416e-01
    -2.5952897055341523e-01 -4.0419323813270730e-01
    -2.6063039707923497e-01 -2.6721037367712114e-01
    -2.8347616623173549e-01 -3.0198381084946435e-01
    -5.5607897047039700e-01 -3.7919080129032279e-01
    -7.3990745589900472e-02 -2.9306861043865756e-01
    -1.3556662110183587e-01 -3.3508674208445743e-01
    -3.4667499314412620e-01 -3.2917318862238742e-01
    -2.9597942014265100e-01 -2.4518007806829054e-01
    -4.6791055354478978e-01 -1.7130436859380638e-01
    -1.1377781901654278e-01 -4.0435544403730811e-01
    -1.8295749275601769e-01 3.5385613652762951e-02
    -2.5196093157243682e-01 -2.8528459296281455e-01
    -2.4910571559392272e-01 -1.2439810739503862e-01
    -6.1268422465756971e-02 -1.6838927790282737e-01
    -2.0061142175616919e-01 7.9001747527447611e-02
    -3.0399780579916835e-01 -1.8839086201073299e-01
    -9.5689639212151623e-02 -7.7233399688682591e-02
    1.3728802150372799e-02 2.2573239386802613e-02 1.5395298749222200e-01
    1.1431226727551684e-01 5.5225247820712711e-02 1.4130026002309326e-01
    -1.0817799286422844e-01 -4.7164435928367856e-03
    -3.6089367199240857e-02 -1.8044878843557166e-01
    3.8013052274346197e-02 7.9094605338581925e-02 7.9505677474005304e-02
    -7.5986005478997046e-02 -1.2707933976020067e-01
    -1.0788607606717487e-01 -6.7904040931230689e-02
    -1.3004439112221700e-01 -3.1393240017031149e-01
    -6.5668258227341764e-02 -4.0782152964774432e-01
    -2.2085632091921631e-01 -3.5562842258159411e-01
    -7.7700890310070894e-02 -1.4611079719903333e-01
    -1.6237363283112902e-01 -2.2354692940832732e-01
    -2.2078359880011128e-01 -8.9046375684920118e-02
    -2.5704729583627650e-01 -1.7144247435329446e-01
    -1.0584682753723182e-01 -3.6607828660605318e-01
    -4.2347088856650977e-01 -3.6142694438803852e-01
    -3.7247564042479769e-01 -2.3130553520821273e-01
    -2.7199015838248280e-02 -4.4270733851366734e-02
    -2.6157012990600420e-01 -2.3775259388292269e-01
    -2.5515622591822762e-01 -2.6682547721001937e-01
    -3.3062379144577991e-01 -1.8635595242893641e-01
    -2.4487885852966088e-01 7.1642053910851114e-02
    -1.5743077812484427e-01 -1.8568448015784983e-01
    -8.4643718703160620e-02 -2.6917198678047149e-01
    -4.0251918688396587e-01 -2.9667115721500020e-01
    -1.7924765760493783e-01 -3.4136822423953173e-01
    3.4127189678308398e-02 -6.1242052411361964e-02
    -2.3992635869333381e-02 -9.1062767436576819e-02
    -2.4211580612091574e-01 -2.8497296862424676e-01
    -3.0181886976596106e-01 -1.7246064030854838e-01
    -1.0001946807966733e-01 -8.0132287282189643e-02
    2.5523803834451270e-01 1.3282431738956801e-01 4.5645160061965728e-02
    -1.9310220494369665e-01 -2.4067005752400708e-01
    -1.2124613150574767e-01 9.8732947934235829e-02
    6.3788567674500002e-02 1.6213018992066203e-01 1.1971951487062822e-01
    1.0701640855553191e-01 -1.5515929220172872e-01
    -1.8196115154474846e-01 -6.5525685461748751e-02
    -2.0207361753663703e-03 2.1906730072792530e-01
    2.5088486970568880e-01 -1.2853228327277244e-01
    -1.3555568793879982e-01 -6.0862159520867723e-02
    -1.1396333729849481e-01 5.4279152889051246e-02
    -2.5242859162468384e-01 8.2015981076919611e-02
    -1.1760640455104755e-01 -2.9781113269871523e-01
    -2.3334863138416201e-01 -3.2767585783607162e-01
    -3.3789723236158309e-01 -9.1089770476847007e-02
    -1.9158536873693760e-01 -5.5994557988224856e-02
    1.5991822859413415e-02 -2.0640293903975360e-02
    -1.7120828430165766e-01 -2.1451556866534643e-01
    -1.9319671290914453e-01 -2.1050395483756862e-01
    -1.1417203194059330e-01 -4.6613246495443031e-02
    -4.1934959994837817e-02 8.1581133826247404e-02
    9.7585987806296411e-03 -2.3332946765327733e-01
    -2.2428418588199842e-01 -1.4818914879148479e-01
    -2.2711920075957079e-01 -2.3908938785023554e-01
    8.6541109070626634e-02 -5.4061058810302279e-02
    -1.2534442489981706e-01 -4.9400903227043054e-02
    -2.5293774855866968e-01 -2.1046809285167603e-01
    -1.5154585558680525e-02 -4.3050120584590339e-02
    -9.6806547459991912e-02 -7.2953198196758315e-02
    -1.7427582906241346e-01 -2.5272400338386208e-01
    -1.1845512211498094e-01 -2.3169574085962125e-01
    5.2919875220940903e-02 1.8449271694891114e-03 6.5072586504983987e-02
    3.8933612631277125e-03 -1.4636604832556757e-01
    -1.5947889972129516e-02 -1.0599109241255690e-01
    -1.4277196487992333e-01 -2.1404981704209172e-01
    -1.8038051253780002e-01 -3.2390452749190717e-02
    3.1521626755765662e-02 -1.3965374550339804e-01
    -1.3858739124655553e-01 -1.0055703104308540e-01
    -2.4950702227333460e-01 -1.5833961657710974e-01
    -1.6852305669402981e-01 -1.6355107213465311e-01
    6.3037794860888938e-02 3.1243772931993399e-02
    -4.1782113778812802e-02 -1.2927505879153373e-01
    -2.1625623704960967e-01 -4.6487459343200803e-02
    -2.0278767843383819e-01 5.2871671312104945e-03
    -1.3776699695089401e-01 5.6812995942757745e-02
    -5.6628542553975383e-02 -1.8742059959728143e-02
    -6.1889815229645803e-02 1.7551115714033214e-02
    3.8963247258925686e-02 -7.2981627405101016e-02
    -2.3395117205677465e-01 -2.3828494672076345e-01
    -5.3734580925164199e-02 -8.1534036600902915e-03
    5.2979124404654868e-02 4.3237633968278281e-02 2.2547213646958081e-01
    1.0746053174206845e-01 4.6687830216240511e-02 7.1185757847507317e-02
    -3.3053403420502786e-01 -2.0579404930578427e-01
    -6.6262035151181037e-02 -2.8803998806074153e-02
    1.3137808932309181e-01 -8.0552359361162253e-03
    1.1701381522939432e-01 -2.1087971341341963e-01
    -2.2636708694400737e-01 -1.8081023567248616e-01
    -2.9296231120897798e-01 2.5218044394965899e-02
    2.1816976729355797e-01 -6.7877673388577947e-02
    -1.4907126411884070e-01 -7.8931117532335587e-02
    -1.8540939788516284e-01 -9.0658793349375863e-02
    -1.7054895465277878e-01 -1.2626870028675985e-01
    1.8665871612852502e-02 1.2233343065603131e-01
    -1.1965900843495818e-01 -1.5552064370247234e-01
    -1.5239838431447181e-01 -1.9382958682040413e-01
    -1.6693046191618005e-01 -1.0955197414976135e-01
    -6.0842239576650851e-02 -1.2913061383001517e-01
    -8.0312039362390911e-02 -1.7705690643025698e-01
    -1.6190114177768566e-01 -3.0258975467840626e-01
    -1.5459184119402744e-01 -2.5021102240901388e-01
    -1.7353887049395916e-01 -5.7544363063398635e-02
    -7.8003277219526115e-02 -7.2041495219860918e-02
    -1.7997205281268197e-01 -2.0939897526609985e-01
    -1.1206711032259789e-01 -1.5708187052345898e-01
    -2.1654926093350995e-02 -1.5884879645291039e-01
    -2.1838114985005325e-01 -3.1982849139968011e-01
    -3.9949323792225051e-02 -3.9830271080199964e-01
    -3.3463964847642791e-01 -1.5582944249122349e-01
    -1.2025263607703061e-01 -7.7367819024949380e-02
    -4.4469896523782929e-02 -2.2859263983623007e-01
    -1.1718613357561114e-01 -2.9695548207911748e-01
    -7.0917767334370427e-02 -2.3932091559906020e-02
    -2.3238559382685481e-01 -2.2192514556446519e-01
    -5.4961234087654923e-02 -1.6203718599128086e-01
    2.1358655793182111e-02 -3.2168973492174885e-01
    -1.4029670234570876e-01 -2.2895198259479221e-01
    -2.3256305430740298e-01 -2.4950348705033096e-01
    -2.9266434984371215e-01 -1.8131554855828055e-01
    -1.4106791394173913e-02 -1.2277811427830154e-01
    3.3108375902127223e-02 -1.5387851115184539e-01
    -1.4376143909972827e-01 -1.2323743964694657e-01
    -5.0740634130873763e-02 1.3083811732485556e-01
    -6.4758456817178817e-02 4.0984002740874020e-02
    -2.4753011010791189e-02 -1.3384250110053653e-01
    -4.1016592213136860e-02 -3.0168097094862706e-01
    -7.6315493468237766e-02 -3.3462131971206531e-02
    -8.6999051461621499e-02 -1.5864518965682395e-01
    3.7442617248737549e-02 -8.8575565689502395e-02
    -1.5819159923452286e-02 -9.7862079097188359e-02
    -1.9998124696297673e-01 -1.1846768877274569e-01
    -1.6793968911856355e-01 -1.2775772337303412e-01
    -3.2026398850254878e-01 -2.1902913089509712e-02
    2.2570919749800390e-02 5.9058744018586344e-02
    -1.9835804460582701e-01 -1.4698212822561557e-01
    -7.8965826995480409e-02 -2.2593177066088879e-01
    -2.3320010650191988e-01 -2.3665468382538885e-01
    -8.3651708814445044e-02 -2.9411327981120799e-01
    -2.0779247625973382e-01 -6.4760028692189747e-02
    -2.8234175258540850e-01 -8.8142961029652050e-02
    -1.3052832967134809e-01 -2.4480386967597603e-01
    -1.9968971970478427e-01 -2.1821307625920106e-01
    -2.2260625508264609e-01 -2.2918059598231250e-01
    -2.1048700969664005e-01 -3.1314495914868767e-01
    -1.6560537663783512e-01 -2.4871959718185552e-01
    -9.9877131882569900e-02 -1.2559353012150370e-01
    -1.9846886093712682e-01 -2.2379467856130855e-01
    -2.8727325042260454e-01 -1.7158928137905130e-01
    -1.9072386275768188e-01 -2.1354455906922529e-01
    -1.1286230684706468e-01 -1.1983689303341996e-01
    -1.9596510315498539e-01 -1.6610161766464912e-01
    -1.2600441354804864e-01 -2.3976687804184060e-01
    -3.2006375830901773e-01 -1.8784090966742517e-01
    -2.3450419344289652e-01 -1.7731807286613224e-01
    -1.9637766922749197e-01 -1.0810597063782765e-01
    -2.4041955652296831e-01 4.3351091088083184e-03
    -2.6759158748936807e-01 -5.5445653694196163e-02
    -9.2685957827975257e-02 -2.5364975962454345e-01
    -2.8299384923951561e-02 -1.4408169611196620e-01
    8.9478409715807575e-02 2.3710139102050690e-01 1.8634644091483693e-01
    -2.9763211700990302e-02 -6.7484325957962513e-02
    -4.1045546316522095e-02 -6.9775198797225699e-02
    9.9241820115697738e-02 6.9366377158055090e-02 1.0795032192105944e-01
    -6.4988296040599136e-02 -6.2440197657946749e-02
    -2.3509943292198476e-01 -3.4614966163406521e-02
    3.5582170895038755e-03 -1.8543166249502541e-01
    2.0274704394846402e-01 -5.2421544194894205e-02
    -2.6970998791075577e-03 -4.0938941772173200e-02
    -1.2305997923644699e-01 -1.1936785659294061e-01
    -2.0874843486698311e-01 -1.3717817709245189e-01
    -1.1907843940908559e-01 -9.9482192284944967e-02
    -1.5813666334461854e-01 6.1552947573739601e-02
    -2.4419061745759837e-01 -3.9145233936846080e-01
    -3.2972973641898068e-01 -3.0465772742877456e-01
    -1.8046642042867198e-01 -2.6290151009587787e-01
    -2.5410374814284276e-01 -1.8512921140373600e-01
    -2.6265520934683745e-01 -1.5910398897152067e-01
    -2.1500441265130130e-01 -2.7555873901253503e-01
    -2.8835172553901267e-01 -2.1619623770617460e-01
    -1.6540976847306371e-01 -2.1695871028168268e-01
    -4.0074061975802505e-01 -2.8753860099860296e-01
    -1.7184953697920188e-01 -1.6509607442985949e-01
    -1.9717519658032789e-01 -2.8802183568241757e-01
    -2.6671713467395564e-01 -1.8991141627923136e-01
    -2.9284409715131027e-01 -1.2661022609655709e-01
    -3.3162290970758163e-01 -2.4522567925067146e-01
    3.5244199034341929e-02 1.3876882182113084e-01 7.2671609304119339e-02
    -1.0411237309627812e-01 -2.2858073031381346e-01
    -4.1953495251384981e-01 -2.1104945977542974e-01
    -2.5019643415907794e-01 3.1035169976625841e-02
    1.1162213810262081e-01 2.4937386921494117e-01 2.9943860287474805e-01
    2.1407755454288116e-01 -1.8957399940710471e-02
    -6.3410708721862358e-02 -5.1226471458742762e-02
    -3.4280615674812215e-01 1.0521103880790449e-01
    1.7825620798365008e-01 1.8250167258338376e-01 1.8910602411264985e-01
    1.7657052127677467e-01 4.0750024279998615e-01 1.3830464107491780e-01
    4.7743325042863397e-02 7.8185726201843900e-02 7.9382163043032056e-02
    2.8887667491576768e-01 -4.9583403819482945e-02
    6.5536823827333501e-02 -3.1730698579353778e-01
    -1.3143521926740129e-01 -3.2152170231421674e-02
    -1.3861775903437173e-01 -2.3085145938963939e-01
    1.0457268269400825e-01 -4.7451761369566234e-02
    -2.1327490818475064e-01 -3.5568805856929432e-02
    -2.0330445875265599e-01 -2.0145739075050337e-01
    -9.7832120251208687e-02 -2.3194735960308149e-01
    -1.5637843957199743e-01 7.7720827224523475e-02
    -5.1836073806092439e-02 -1.8287391623754135e-01
    -8.7972818927601074e-02 -1.9627811513855922e-01
    -2.6585926312418390e-01 2.5067837656635911e-02
    -1.8006496751910481e-01 -1.9253982370151801e-01
    -2.6342269204898999e-01 -3.0824440033752465e-01
    -2.8616328815657005e-01 -4.2960941301418566e-02
    -3.9704983324974918e-01 -9.1972313230504199e-02
    -2.0460983450923273e-01 -3.5337630722535296e-01
    -2.2982362027032419e-01 -6.1965790325864557e-02
    -2.2850129765857277e-01 -2.4658699867625183e-01
    -2.0076816001265382e-01 -2.3872622168283608e-01
    -5.9867706750079575e-02 -2.9290937881624263e-01
    -3.7461507862624710e-01 -3.3728787756106721e-01
    -3.3168479576996986e-02 -9.1312935696060207e-02
    -5.6723078492757394e-02 -1.1884054485725165e-01
    -1.2620396599621797e-01 -9.1786160738763931e-02
    -2.6566034017470191e-01 -1.5254913106862580e-01
    -2.4756789263737644e-01 4.2390413235970419e-02
    -1.4968375719146160e-01 -7.8694660716767201e-02
    -1.9957262467533095e-02 -1.5258614554419508e-01
    -1.0576833254448278e-03 -2.3981804710024282e-01
    -2.5554818288123127e-01 -3.9081333919924333e-01
    -9.3649311578557909e-02 -1.0028541176056087e-01
    3.4164693730691163e-02 5.9054231397771210e-02
    -1.5230711327182168e-02 -1.1293473505668011e-01
    -1.1965919949484879e-01 -9.7298860152231673e-02
    -4.8242757841880639e-02 6.3484720320268709e-02
    6.1036261099294331e-02 -7.4451353126625125e-02
    1.3871452742051399e-01 1.7212129571088988e-01 7.7650584951338544e-02
    -1.1440290066041668e-01 -1.1294292530300416e-01
    -4.9697912785634249e-02 2.7698400861595474e-01
    2.2306812245491492e-01 1.9633794258101175e-01 9.1496418752055705e-02
    2.4094214450827428e-01 2.4596512272188531e-01 3.3380249375328408e-01
    1.6461791839905848e-01 2.1446573813414635e-01 5.1737821032772066e-02
    6.5702427761219012e-02 -1.5985505317647078e-01
    4.8324509605871410e-02 -1.0694642650339610e-01
    6.8389306578755374e-02 -1.9136269599770585e-02
    -5.6340046428781536e-02 -2.7478820723718245e-01
    -6.3175311955098066e-03 -6.2840934834736462e-02
    -2.7949383210788059e-01 -1.9598029796985261e-01
    -1.5921343760532072e-01 -1.1219590539034689e-01
    -2.3360107975377836e-01 -3.3121678972568325e-01
    -3.6752420051040879e-01 -1.0706799184589845e-01
    -2.5633541197756227e-01 -3.7013427199808757e-01
    -4.5751351473995305e-01 -2.5682487184482999e-01
    -2.4585740535385459e-01 -4.0307077870997293e-01
    -5.6462889597631305e-01 -5.9699731993897054e-01
    -2.7255178564609966e-01 -3.9803181751149713e-01
    -3.6321640254339183e-01 -2.9786384517858983e-01
    -4.0535593205124504e-01 -2.4741556502804798e-01
    -5.9862202079238258e-01 -3.4846880672504787e-01
    -6.1167807554343001e-01 -2.1529055705447386e-01
    -1.8691863776132692e-01 -3.7614771606337266e-01
    -1.0659715356923734e-01 -3.7633876104296032e-01
    -4.5282372161315659e-01 -3.3642533513143391e-01
    -2.4743080336601542e-01 -1.2908980284158292e-01
    -1.6045940428347897e-02 -2.2609736303862221e-01
    -2.8634163567457560e-01 -1.6719785569965731e-01
    -9.8084463603190911e-02 -1.3173232797322690e-01
    -6.4426178638260889e-02 -1.6482405127996456e-02
    -5.2521120433118303e-02 -1.0741604645001451e-01
    -1.3321082608872541e-02 -1.2718219700672878e-01
    2.9230291431832750e-01 1.1960762203046051e-01 1.9523069957725397e-01
    3.2228763589043741e-01 2.4193271815975548e-01 3.5031828429975931e-01
    4.6729494718218127e-02 -1.1527333913743609e-02
    5.4702458581883232e-02 1.3230227164874932e-02 2.4575892572957084e-01
    4.8762409763990561e-01 4.7505334937553301e-01 2.7025149230578682e-01
    2.8070383970202450e-01</cov_weight>
  <con_bias>
    -8.0773689275385330e-01 -9.2567695585321919e-01
    -8.9474895736158633e-01 -1.0018592253269714e+00
    -7.4229181222799678e-01 -7.5634870266014065e-01
    -1.0238206265572549e+00 -7.3422244188140839e-01
    -9.5060068761830907e-01 -1.2891743725469320e+00
    -8.7435308531466938e-01 -9.4264762340508867e-01
    -9.7327456084717634e-01 -9.4889762078697326e-01
    -9.1547707373096232e-01 -8.4205777816119010e-01
    -9.3296687731105121e-01 -8.6472204115329809e-01
    -1.0048438399987278e+00 -8.0085990224320958e-01</con_bias>
  <sp_weight>
    1.1469119599484899e-01 1.4708749960350015e-01 5.3743976353185376e-02
    1.4080760996190838e-02 4.1483838531584348e-03
    -1.1252509686326320e-01 -4.1061622959142063e-02
    3.4709937627041394e-02 2.1657797851830515e-02 6.5271868416811943e-02
    1.3564315253630910e-01 9.5161242016196426e-02 3.5737238661942214e-02
    1.6784006953703350e-02 -4.2416074953272570e-02
    -1.1431946394332962e-01 -1.9556120435841340e-01
    -8.8820122077101160e-02 -7.9304531323596578e-02
    -1.1687974282137735e-02 6.2095573993533090e-02
    4.7734814880684734e-02 -2.0970771969633616e-02
    -4.1581086321083233e-02 -1.3298588102874359e-01
    -1.2832486321779155e-01 -1.5015813576248985e-01
    -1.1578364300324445e-01 -1.1131618461744332e-01
    -1.0572337883315257e-01 1.5601185041424364e-02
    3.5990250415625480e-02 -1.5035022602702586e-02
    -8.9646898131039557e-02 -2.9089087680604975e-02
    -6.9826798981863378e-02 -7.4476727973240731e-02
    -6.2639969753119432e-02 -1.0411682355056132e-01
    -9.9834221177165922e-02 -3.7558963234493793e-02
    -5.2282843451365205e-02 -1.0238752769957438e-01
    -1.1579427384893381e-02 9.7706720974276590e-03
    1.3450395636574403e-01 6.6459375417004488e-02 2.9742557592608247e-02
    -2.2379194058609980e-02 -5.3123406569819752e-02
    -7.7642794105865108e-03 -7.3594044815387019e-02
    -2.2670879195980868e-02 1.2531761096673415e-02
    1.1348305393200946e-01 3.0740749671733375e-01 2.0744012865279110e-01
    1.3289505262349000e-01 1.3154200264273832e-02
    -6.9925199785198650e-02 -4.3590898146399347e-02
    -4.1393867685281110e-02 -8.1189482037447441e-02
    -4.9225111708844360e-02 1.2180550306900680e-01
    2.1012784280662827e-01 1.6392188467900129e-01 9.1982511048017065e-02
    2.5847674544737503e-02 -9.7190315105967748e-02
    -2.6349500643785880e-02 -7.4665080302862286e-02
    -1.0827704466916288e-01 1.2410780335063879e-02
    9.2285142078861418e-02 7.6141116941475823e-02 2.0454784654065868e-02
    1.3759669713047387e-02 -1.3106257457015651e-03
    -7.6131575554825193e-02 7.5764991295421288e-02
    -3.1487918322032675e-02 -1.1558029601029404e-01
    -1.2892861931335900e-01 -7.6895183356334343e-02
    -8.8592339035711828e-02 -8.5881564027383062e-02
    -3.9326942247372508e-02 -4.8710947288182448e-02
    1.2534010405086940e-02 1.5862161607363157e-01 1.2119112128084157e-01
    -2.5666722678559746e-02 -1.2869616169975034e-01
    -1.1474478874033944e-01 -1.5461290860131285e-01
    -1.5085495645246580e-01 -1.0267202935241646e-02
    3.2203279329755783e-04 1.2362172314714279e-01 9.9537572759951259e-02
    1.5315768544332034e-01 4.5124190661457696e-02 6.9113836837118650e-03
    -3.5879271046737798e-02 -1.3488227137890446e-02
    -1.3246853993241930e-01 -1.2659659205875406e-01
    -4.6819181916604717e-02 1.3664876457443778e-02
    1.4176266850456115e-01 6.4545552774449566e-02 2.2118561115430566e-02
    -3.5415722112264784e-02 -2.9268905926065607e-02
    -1.4770032264181984e-01 -2.3086168489172165e-01
    -1.8954187099205569e-01 -7.7904037566076945e-02
    -5.4561116369693949e-02 7.0274799875635341e-02
    -5.9588019198161521e-02 -7.7820812150582189e-02
    2.3273708468411581e-02 -1.9245022838340199e-03
    -8.9004947290035608e-02 -1.3142477803445224e-01
    -1.0322859651349854e-01 -1.2389739383510842e-01
    -1.4407721747069110e-01 2.5536694736706330e-02
    -1.3031933994039835e-01 -2.9200513966773894e-02
    6.4046830680534544e-02 -2.1678357850540800e-02
    -1.8922500537389562e-02 -2.7242884043562662e-02
    -3.7488738893104619e-02 -3.4145363049805422e-02
    -5.7125900160129729e-02 -1.2008719787462433e-02
    -1.0918059597595885e-02 1.4965973068428628e-02
    -2.3067786166462656e-02 -2.4562813322195769e-02
    9.1405420943581200e-02 1.5572180897858995e-01 1.0668572175553363e-01
    1.0917791342015398e-01 -8.9429942854569844e-02
    -1.5924974853877335e-02 -5.8712207403770957e-02
    -8.9517088117954408e-03 -6.2313236772886575e-02
    6.7906849888126813e-02 2.4280616846059533e-01 3.5006183077937714e-01
    2.4564543041564646e-01 1.3379481653698710e-01
    -9.5966671780307017e-02 -5.6661300004467195e-02
    -2.7006978277021948e-02 -1.2237976917412377e-01
    -1.3366869853878416e-01 3.0935662785861639e-02
    2.3661609930544442e-01 2.0447271506908787e-01 1.1728589983168958e-01
    -4.1295890168343334e-02 -4.9797415624048755e-02
    3.5212785296405688e-02 -3.8786126173392384e-03
    -1.1323613575396405e-01 -1.2700708733501972e-01
    -5.2772338258163923e-02 -1.9452432099758780e-02
    -1.3150923275892654e-02 -1.1546929318946859e-01
    -6.1701798098358310e-02 -1.6611028981411022e-02
    1.0954267710600953e-01 2.2605540503987005e-02
    -3.1364441503679875e-02 -1.1384086647130234e-01
    -1.5237643532394887e-01 -1.8679563993951340e-01
    -1.4977033784697555e-01 -1.5949347914251211e-01
    -5.1872453135823712e-02 1.3085764608078476e-01
    1.1280513235037391e-01 2.3369594302015149e-02 2.1184246499671072e-02
    -7.8669746363173185e-02 -1.2983423766876895e-01
    -1.3943201710219696e-01 -1.4485850837381134e-01
    2.5633078223641050e-02 9.6149504771854813e-02 1.3452621031344714e-01
    1.8991100291298060e-01 8.7815056323928345e-02 6.4208297203113981e-02
    5.5482490288353552e-02 8.5446633715492663e-03
    -6.2243506262116326e-02 -1.0686900196131732e-01
    -8.2853034288881994e-02 7.3338302276838713e-03
    7.0439650569230433e-02 1.0442470579333396e-01 4.2697170683166127e-02
    4.9752510373075119e-02 -6.6428623154216868e-02
    -8.1276292927594085e-02 -1.1142461018205538e-01
    -8.0417330052075853e-02 -1.1781856364841428e-01
    -5.3105766474123718e-02 -1.0953113574315915e-01
    6.5205384677258324e-02 2.6149168398294512e-02
    -5.5551594398809884e-02 -9.0391029289148217e-02
    -1.6575156109055363e-02 -6.6619095170401987e-02
    -5.0374243197892549e-02 -8.7609267476317365e-03
    -7.2530875421375665e-02 -9.8279233275870639e-02
    3.1983847943382063e-02 -5.6181959822676410e-02
    -7.9136589752194814e-02 -4.2133732631782356e-02
    1.6460434042088155e-02 3.9309677779016054e-02 8.2567113729028987e-02
    4.8569404839433429e-02 -4.9164333445828413e-02
    -2.9094651400451744e-02 -4.2165017556508352e-02
    -7.7074654838210299e-02 -2.8471401114637956e-02
    2.2432541922618069e-02 3.4023805344113645e-02 1.5796462380479154e-01
    1.1800069011876022e-01 4.9769887084454276e-02
    -4.6393965567769292e-02 -6.5834295906099932e-02
    -6.8867261835352895e-03 -2.5166270816447501e-02
    -2.6117480216572165e-02 3.8709675411817961e-02
    5.6473290105163679e-02 1.6838663745265639e-01 1.6888062145491459e-01
    7.6330373237940105e-02 -1.1945345346206728e-02
    -8.4090215599692597e-02 -2.6293059311202502e-02
    1.2060459266876530e-02 -5.4348080652154865e-02
    5.4467209151641494e-02 1.2177269339963498e-01 1.1129322805042173e-01
    9.8550746827972713e-02 7.8716326355574337e-02 1.1166544965857554e-02
    -2.9593393383840729e-02 -4.1143772345443405e-02
    -5.7740542253316110e-02 -5.1529729885755179e-03
    6.9575208119844103e-03 3.8512674397512603e-02 1.4243658261274947e-01
    1.0615406145392009e-01 4.2137087582028311e-02 6.7857029787146963e-03
    -6.5554283922805628e-02 3.9749643623620788e-02
    1.5550973208879160e-02 -4.6589763640089238e-02
    -1.8904602697011347e-02 8.4607174572772035e-03
    5.0721324861184192e-02 -2.1569030413459318e-03
    -1.3446831589531911e-02 -9.4593652924279958e-02
    -3.5192490095206051e-03 1.0724619909931805e-01
    -2.1630190387954711e-02 1.4565431543817639e-02
    -4.9953471679709864e-02 -5.4124189299721209e-02
    -8.8545941109631154e-02 -5.6193655284154480e-02
    -1.8618682450330850e-02 4.8572699053675552e-03
    5.0843682983519288e-02 1.8238723728760581e-01 1.4472804993373911e-01
    5.2277362590706908e-02 -2.2528521343727865e-02
    -1.7409245416872290e-03 6.0059872468082198e-02
    -3.3478000830883922e-03 7.4355753469524241e-03
    -7.2692493477231595e-03 7.2857317356273349e-02
    7.0232618103719030e-02 3.7821107991780727e-02 2.6979734205470837e-02
    7.5925373691683118e-02 8.2738855601396530e-02 4.1344253882541308e-02
    -6.6240027696986475e-02 -3.2258899375391878e-02
    -7.7366100410546187e-02 1.3484565890006940e-02
    4.3997038686518990e-02 5.1874255993426363e-02 4.8134045241262656e-02
    1.3604963910773156e-02 -5.5086259012111539e-02
    -1.0546379212724936e-01 -1.3794993115804594e-01
    -1.4233684587165255e-01 -8.3825832642346804e-02
    -1.2668876938280474e-01 7.5054042647388811e-02
    5.8572574375995341e-02 -3.4850716854073156e-02
    -9.3948234793908986e-02 -1.9164223070141009e-02
    -1.1126067085145635e-02 2.1690339428919285e-02
    -6.3861499905326455e-02 -3.0630531668045764e-02
    -2.6372939737860666e-02 2.8628140231913204e-02
    -4.4898534925657332e-02 -7.5682499308735565e-02
    3.7439304965938766e-02 1.2718911144152242e-01 1.8672687598677309e-01
    1.6736226812466107e-01 7.1065952531241434e-03
    -2.2340191186741264e-02 -1.7912358535158535e-02
    6.5476735139980069e-03 -5.2672588632878672e-02
    -9.5360493618646958e-02 7.1650213846330871e-02
    1.5480358389288759e-01 2.9253260582650875e-01 2.0799033222489496e-01
    9.9202086866529343e-02 2.3131535865627651e-02
    -4.1102559183708004e-02 -9.8959098377258872e-02
    -6.6239749470723655e-02 -6.6327607911936440e-02
    -2.8387753249379134e-02 7.7538633503632159e-02
    1.6635217486397857e-01 1.2666622113308995e-01 3.9233837439750327e-02
    1.0763168514517059e-01 4.0591728222250816e-02
    -4.9139805677694763e-02 5.0749632201521405e-03
    -6.4710527200156159e-02 -1.1582961561394734e-02
    -4.0290078216584152e-03 3.3092112602453976e-02
    9.9959506567883813e-02 1.0650350674698794e-01 4.2424310078616786e-02
    2.7519862464443805e-02 6.9693677425338788e-02 1.9982947686173736e-03
    4.9426479522368862e-03 -4.4217811590235072e-02
    -1.1336530935770779e-01 -7.2603186105664477e-02
    -1.0300494520960067e-02 -1.6903881893308220e-03
    -5.9503495531418506e-03 3.3018214035949005e-03
    1.3352033922141479e-01 9.1050247774799115e-02 5.5726157453919269e-02
    -1.3697626570519227e-02 -1.3593872104916513e-01
    -1.4728240332330234e-01 -7.9993766534667859e-02
    -8.1829579906139968e-02 -5.4049468759937488e-04
    1.1641705257753279e-02 1.6648906528691454e-01 1.2716510749736162e-01
    7.1065795476760993e-02 6.2276843941053588e-02
    -8.0992146181497637e-02 -1.2589166131813473e-01
    4.3558760784336622e-03 -5.1024553669673317e-02
    2.6629059353447049e-02 7.3566387447386805e-02 1.6412124651553275e-01
    1.0229737300177870e-01 2.2076417398825675e-02
    -9.6234050662407575e-02 -5.2325064879232421e-02
    -1.0006238529340117e-01 -1.1092409946759672e-01
    -6.2240962271487864e-02 -8.3547544423241638e-02
    -2.3492038020932166e-02 3.0676341720019595e-02
    3.3897013968857817e-02 -7.2435191650442404e-02
    -5.3003396162405646e-02 -5.9322232086407377e-02
    -5.7460831681157174e-03 -3.8929438275720582e-02
    -1.0051114604782480e-01 -3.7068924460595398e-02
    -1.8671069171948797e-02 -2.9617039832212898e-04
    -2.4262711318543396e-02 -5.4278742721011096e-02
    -1.3855334350607878e-02 5.2516871128998700e-02
    7.5477541050388397e-02 4.2003838871562720e-02 1.0684338028277460e-02
    -2.2780373374576800e-02 -1.1448917437690232e-02
    -3.3839319177432887e-02 -8.4199876423052031e-02
    -2.4455296325426947e-02 7.9454145540907004e-02
    1.2855363093848704e-01 1.0476478834866855e-01 8.0504738414159713e-02
    6.5218538218494632e-02 -5.3214366821566668e-02
    -4.5534816869671035e-02 -6.5183185067105937e-02
    -7.9871907938827591e-02 -8.1802612091382412e-02
    4.2457577167791340e-02 5.8807225118806594e-02 1.7169963938007132e-01
    1.5262568071754054e-01 6.6744579337723473e-02
    -4.4543875580998649e-02 3.0506246474206662e-03
    -5.2385814027167556e-02 -1.3800492584026514e-02
    -2.9486417845314371e-02 8.1178891061710716e-03
    4.3760201948445938e-02 1.9292674465057277e-01 1.5709005290819991e-01
    5.6285519648735391e-02 1.0381527798744709e-02
    -6.6257189503103289e-02 4.3014515734278280e-02
    -7.7651550454610890e-02 -9.6774532127938476e-02
    8.4629381852535102e-03 4.9269104874370966e-02 7.9061784493778736e-02
    1.5000097634961454e-01 6.3538420101498915e-03 3.9299805121663350e-03
    -6.1598319385026641e-02 1.1340186350943074e-02
    -1.0369724620482787e-02 -1.1887897185567438e-01
    -2.3934797822989566e-02 -3.0145694943259176e-02
    3.6237241024704631e-02 -7.1230806364423971e-02
    -9.2747768590900975e-02 -7.4200499804153067e-02
    -7.7591545940735081e-03 1.4047296303485377e-01
    2.6374876813378256e-02 -4.3577267881671392e-02
    -8.8686199818337363e-02 -4.5010158768242672e-02
    -6.4301970016251889e-02 -7.7568675948973889e-02
    -1.6891406949928883e-02 7.4988336515886822e-02
    8.3044189933332804e-02 9.6534728502702519e-02 1.0929156187430183e-01
    5.3238901696057411e-02 5.0931734607046225e-02 4.7136763158949546e-02
    -1.6964748119435758e-02 -7.0134459916295966e-02
    -3.8783189664012736e-02 8.2930217407516590e-03
    8.3034126203260422e-02 1.2830105828260152e-01 1.0114052640657598e-01
    6.4048943594652352e-02 -5.3181691363266864e-02
    -1.2450127284482101e-01 -1.4877074715459190e-01
    -9.4473326302575766e-02 -1.5746959178930875e-01
    -1.2357171957791407e-01 -8.9135884060658546e-02
    1.2010547890552034e-01 5.6133449088395723e-03
    -2.2556745227484465e-02 -7.4419488439916692e-02
    -3.4487682685006509e-02 -7.8238828658532031e-02
    -4.6738581856715963e-02 -5.0892006224492969e-02
    -1.4320582099655502e-01 -1.1001091802146992e-01
    2.0172648466121039e-02 -6.8539494400284881e-02
    -5.0100176084171937e-02 -4.8845542401236910e-02
    4.4391818820650845e-02 1.0349219646119660e-01 5.9774830526710759e-02
    -6.1401256712737121e-02 -2.5845549298380052e-02
    -1.1535114634075613e-01 -7.1350159260997387e-02
    -9.6048330171285293e-02 -1.0163010837035873e-03
    9.4471810646324691e-02 1.3805010578606133e-01 2.0503974492192092e-01
    1.5428912772944076e-01 2.5154591751706624e-02
    -6.4504127951131765e-02 -7.0929377280045156e-02
    -1.2398709511770034e-01 -6.9758437716255325e-02
    -4.6615707021057447e-02 4.1619861771674177e-02
    2.0864092952661767e-01 3.1420920827297716e-01 1.2135954792095553e-01
    7.4829822420797512e-02 5.8680045974590561e-02
    -2.3547906614725393e-02 -7.8166087622237729e-02
    -5.7787153610896334e-02 -2.7773254697045439e-02
    4.6097689063441444e-02 6.3046377850335192e-02 6.2462489839939420e-02
    8.7853704670054655e-02 7.1052276022460489e-02 8.2141694022177608e-02
    -5.3791011848195597e-02 -3.4412504173987168e-02
    -7.0998970238305439e-02 -8.8805336854361649e-02
    -7.7168741487570816e-02 -3.2007329347733024e-02
    3.8730569176315482e-02 3.5222135565821336e-02 7.7285268080361111e-02
    3.8391584952931761e-02 1.2319660733307147e-03 4.8936276851571543e-02
    -8.8452262113775382e-03 -3.6943240238561902e-02
    -5.4619915435851443e-02 -1.5008843159582846e-01
    -6.8174377767854386e-02 -5.4080627182290619e-02
    -4.8307792171920119e-02 -3.3691011413993763e-02
    -1.1781992144638469e-02 1.1622632202836945e-01
    6.8626816803735377e-02 5.7904330976919938e-02
    -8.5415980910061640e-02 -8.2957488306514976e-02
    -1.1501687147847894e-01 -1.3261975262635545e-01
    -6.7246727924236971e-03 5.8507894394262093e-02
    4.8235423916119187e-02 1.3798801354907247e-01 1.0033206750231916e-01
    2.7860868535154654e-02 2.9386061340667645e-02
    -3.2599652344125637e-03 9.3511955991107034e-03
    -4.2010809234101873e-02 6.5225795454711983e-03
    5.5209452186824890e-03 3.5119815618907702e-02 9.5250904269678874e-02
    9.7977012414638742e-02 -2.9387167631664230e-02
    -1.0267429662442205e-01 -1.3772796348473440e-01
    -1.6598747176951642e-01 -9.4045099435095605e-02
    -1.0213899541001682e-01 -8.4143175770052245e-02
    -1.2052008128784283e-01 4.3722190058432885e-02
    5.9267430533690491e-02 -2.7470005417433857e-02
    -9.1355248480136046e-03 -7.1841816299952649e-02
    -7.5332907568351079e-02 -6.2597820939945606e-02
    -1.6304292054815428e-02 -1.1890370204634451e-01
    -1.2750990379290625e-01 -4.6102408852343971e-02
    -6.7394300695312465e-03 -6.4151087262770542e-03
    -2.9331038217977625e-03 4.6183720694402568e-02
    9.9376411720290672e-02 5.1542632184024814e-02 5.5248097271237619e-02
    -6.9681721869127161e-02 -8.7665409404243694e-02
    -9.6907641121069435e-02 -6.8533762266567808e-02
    -4.4476823666050887e-02 8.9322904538488332e-02
    1.9265799122791474e-01 3.5582570834308624e-01 2.4866087929487118e-01
    5.6105650064841271e-02 2.3640062355957527e-02
    -3.9959033004098664e-02 -4.8496183883646952e-02
    -7.8432611843989836e-02 -1.5447063958299614e-02
    1.1444546520318523e-01 1.9487455450307914e-01 3.0966132420677439e-01
    1.0929112757087966e-01 6.2809261847873249e-02
    -3.8896876131954743e-02 -6.4004235597335257e-02
    -3.6066576001477238e-02 -4.5943525125376715e-02
    -1.6522593681559887e-02 5.7281584194121771e-02
    3.7350105027313098e-02 3.0617165218725668e-02 8.3498605500765214e-03
    -2.0289605708130511e-02 -1.6612160250068484e-02
    -3.1212498919373395e-03 2.9634561765957315e-02
    -3.4293105637489343e-02 -1.3407863911573203e-01
    -6.7185436824799105e-02 -2.7008748246947149e-02
    -6.5873005173439428e-02 -1.0699994218493161e-01
    -7.8519735346484335e-02 -1.1002621065789638e-03
    4.1686065612203213e-02 1.2337741790700209e-01 3.0840586460885961e-02
    -1.3874896856644692e-01 -9.9182662668726898e-02
    -2.2284685261596160e-02 -1.3361184479430305e-01
    -5.2911986890830980e-02 1.7975733207850825e-03
    -2.8696239086754290e-02 4.1244795387078301e-02
    1.6090475986785951e-01 4.2389848336262963e-02
    -4.0427380523131266e-02 -9.4690456818965568e-02
    -6.0964406711280623e-02 -4.9774803086953749e-02
    -8.1538438145056846e-02 -8.8331179675955798e-03
    5.0409047566554128e-02 1.5334598202030575e-01 1.1242789090458809e-01
    1.1098816003980304e-01 3.3177031856337087e-02 1.1838839762009919e-02
    2.4717033496457149e-02 2.5530569151789362e-02 1.8400337355485040e-02
    -5.0863683834625098e-02 -8.6997212812641497e-03
    3.3151925920180188e-02 1.2850659160569930e-01 1.0989263511046087e-01
    8.8555855836614204e-03 -4.3882612564750248e-02
    -4.2617717968576205e-02 -7.9068498007589166e-02
    -6.8694404522953306e-02 -1.1305280638066487e-01
    -1.0678982203838638e-01 -7.6543580976616274e-02
    1.0859847208484859e-01 -2.0357819389702922e-02
    -7.9454936905521537e-02 -2.5570405934802271e-02
    -2.2882523563053807e-02 -1.1330490412234526e-01
    -6.1781137686049543e-02 -9.0182685449891373e-02
    -6.2176689891167779e-02 -8.5123564330364471e-02
    5.9718428500081328e-02 -2.2391189614033417e-02
    -1.4113490105489283e-02 1.7383274223198911e-02
    -1.5476309632101459e-02 3.1185367894063364e-02
    7.4107439167097819e-02 -2.4536578203191214e-02
    -2.8484764517569977e-03 -6.8198020440713977e-02
    -7.5364879758917369e-02 -8.8439522827581815e-02
    -5.4703425308104386e-03 -2.1548241142123059e-02
    8.4674315058844193e-02 1.8701085525383673e-01 1.0610584841074980e-01
    6.6101305538975599e-02 -4.5776144952740048e-03
    -4.0670231675860057e-02 -7.7242024225355879e-02
    -2.6730546318227869e-02 -2.1143770715095964e-02
    6.1977967787446443e-02 1.7744488017040969e-01 2.8424124317507332e-01
    1.7791782352190380e-01 4.6648724774390020e-02 1.3418758671849301e-02
    -1.0000564363109511e-01 -8.4547098599482839e-02
    -3.0700636292961100e-02 7.6137913826614025e-03
    2.2882904872801691e-02 8.4722901380757096e-02 1.7048977028870468e-01
    6.8702441650045201e-02 1.4612113335054650e-02
    -4.5737617922426720e-02 -7.7117238876163912e-03
    5.0034583935012970e-02 -2.3415640966818752e-02
    -5.9441029531718252e-02 -3.8309461799475017e-02
    3.8651821466625619e-03 5.3905582574180690e-02 1.1391082375485279e-03
    -6.9304007062837639e-02 -7.2615517717776565e-02
    -3.9718329710063408e-02 3.0327898986998003e-02
    -4.6193866539533855e-02 -7.9273178239055692e-02
    -1.0110767618881425e-01 -8.5285203332986503e-02
    -6.0492028552269768e-02 -5.3769638239318122e-02
    -1.0263917113234435e-01 3.0519748389411461e-02
    5.3902946972967353e-02 1.3307466621754782e-01 1.4494635783165009e-02
    4.0466143828596611e-03 -5.9178222971014618e-02
    -1.6922873229572030e-01 -7.7614615522053329e-02
    -1.0493813750179218e-01 -4.7812320913683218e-02
    2.6984323582206329e-02 1.0947169912286323e-01 1.5314073318991023e-01
    1.6463418719732847e-01 1.1585561250829999e-02 3.7147262817489278e-02
    1.1323673905238729e-02 -8.2103244512380880e-02
    -5.6432582919104607e-02 -9.9388900205069118e-04
    5.3324938551260581e-02 3.4169844049717832e-02 1.7752093826742768e-01
    4.3221428162906118e-02 2.5653157121073907e-02 1.4323834949763689e-01
    1.2492310211866041e-01 -2.5688038047239348e-02
    -4.9736164919058856e-02 -4.9576250107864567e-02
    -9.1751429429515266e-02 -6.0451411359710085e-02
    4.7318264866171543e-02 6.6176305903863905e-02 9.3142742907844536e-02
    4.1368775508812634e-02 -6.6030403322720324e-02
    -1.6584343337910379e-01 -1.3063717450711676e-01
    -7.8607887691042891e-02 -1.4389985740417593e-01
    -7.5363557166385681e-02 -1.5818754220350825e-02
    9.3028251207581347e-02 -6.1707944686634465e-02
    -4.2199466647315644e-02 -3.0809153227699941e-02
    -7.2008246235486975e-02 2.3724657431510757e-02
    3.1405600879587978e-02 -8.6619219333332748e-02
    -1.1405064665609740e-01 3.2839677380076204e-02
    -4.0766340645013811e-02 -8.5620324033501213e-02
    -4.4234336564530539e-02 2.9015186027899625e-02
    2.1709073852725344e-01 1.7001473681473803e-01 7.0962888683233513e-02
    1.7321052732905441e-02 -1.0760496308341248e-01
    -2.7448266296652365e-02 -6.7086571982831800e-02
    -7.2426109591214038e-02 2.0987196566947114e-02
    1.6111902404557435e-01 4.4265235954716964e-01 3.4300697806137004e-01
    4.8487071093566370e-02 2.5216758238026233e-02
    -6.4909300582831314e-02 -1.0457862566841537e-01
    -1.2641310042523307e-01 -2.9691456142693133e-02
    2.9865732075955328e-02 2.2737904397060693e-01 3.3089589684147996e-01
    1.0291015285601424e-01 1.6119537532884674e-02 3.3866218946816566e-02
    -2.6213506858548941e-02 -6.9677650800528110e-02
    -1.0815581723063830e-01 -2.3384340167771328e-02
    -4.3483139857612041e-02 7.3783116674386043e-02
    6.0620565729377393e-02 -1.9891936122724208e-02
    -3.4414478553702943e-02 1.8972821914061581e-02
    -1.2533560814184388e-03 -1.9742751840784122e-02
    -6.5528134353877332e-02 -5.2135422490001325e-02
    -5.5273769281777720e-02 -5.8921364365213461e-02
    -1.1813561927739201e-01 -7.0583654525009490e-02
    -2.4701640727662684e-02 4.6215755630143969e-02
    8.9474098759541962e-03 1.4322142231820806e-01 3.0647089632452117e-02
    -5.1769852517810515e-02 -1.1862331006511394e-01
    -1.2522615025216974e-01 -7.7665370076664783e-02
    -4.3483186308386101e-02 2.5726813995788290e-02
    5.9090292219089832e-02 1.0759310276344082e-01 1.1172090005231265e-01
    1.0166072426981666e-01 4.7463913127332530e-02 2.5803140482798755e-02
    -3.5096104011953970e-03 -8.2110710562469921e-02
    -6.6029665545521046e-02 -1.0950329830358964e-01
    -7.0516082734510918e-02 -2.0037213809915660e-02
    1.2230603015276274e-01 1.1076348364978986e-01 8.3129850257706486e-02
    -8.5164112219012020e-03 -2.1025714907467721e-01
    -2.3445598609460930e-01 -2.3935546500288532e-01
    -7.6871577549514167e-02 -5.1804320087936929e-02
    -1.2862424034206638e-02 1.1536583468340816e-01
    5.0494968890677450e-02 -2.3321877012692761e-02
    -1.6426589749258888e-01 -1.9830861266055944e-01
    -2.2475284739935780e-01 -2.0497384233943158e-01
    -1.7754144114976619e-01 -1.3368632794609586e-01
    -4.3347905638495464e-02 1.8765081340982375e-03
    -4.3308702049037681e-02 -4.7487077840435300e-02
    -1.2655911203597164e-01 -8.2459233543861560e-02
    2.3297024485751952e-02 -8.6672271787638061e-02
    -2.0309523211769154e-01 -2.3245714432267223e-01
    -8.9972288205384457e-02 1.2189795815024449e-02
    -1.3203745084444354e-01 -4.3301026915590506e-02
    4.3966240977673758e-02 3.3415313327059082e-01 1.5972264689472362e-01
    -1.8196975777735852e-01 -2.7216487258266853e-01
    -2.6859438558315668e-01 -8.2257638332008401e-02
    -3.7114344572349155e-02 -9.4021340579882415e-02
    1.2436652028596604e-02 3.3848048378704043e-01 5.5637793904474886e-01
    1.1328021197435184e-01 -2.2787516088667270e-01
    -2.7235173261931361e-01 -2.2429047879401323e-01
    -2.7022268718340375e-02 -9.4495344819423788e-02
    -1.5092734564682594e-01 -3.3372337392937296e-02
    3.9155366111341472e-01 4.1640108620316607e-01
    -3.9098399657549014e-02 -2.1779777226413491e-01
    -1.8601826258407567e-01 -6.3729783044577215e-02
    9.8657684567067847e-02 -1.1533108586444608e-01
    -1.2346714867869962e-01 1.5149223628816310e-02
    1.8923218733112598e-01 1.3765405668303979e-01
    -1.0423983320178283e-01 -9.6777174132209751e-02
    2.2223803069399480e-02 9.6692177905257276e-02 1.0571681080873380e-01
    -8.8334141083988071e-02 -1.1565798758625219e-01
    -8.4264906605799911e-02 -8.5521247049851923e-02
    -8.0719787239866905e-02 -5.5085234758809436e-02
    -5.0782520988056447e-02 7.1569979056609903e-02
    6.8858441673876267e-02 1.0655364263528568e-01 3.4035268515158194e-02
    -5.2895200815191425e-02 -1.2901764925259196e-01
    -2.0900136326060745e-01 -1.7129317131252500e-01
    -1.1834374865715830e-01 -3.5808738368434352e-02
    4.6009452785907824e-02 3.3256115259702110e-02 4.4882437655522127e-02
    1.6589871062746628e-01 9.1638132905617675e-02 4.1199276351498969e-02
    -2.6508176789825470e-03 -2.1663409824395487e-02
    -1.8406713146638387e-02 3.8133176258084114e-02
    -2.9785035785986059e-02 -3.9589992342730841e-02
    6.9314995205824792e-02 1.3497602290939961e-01 8.1546136205169970e-02
    3.0313140248882285e-02 -5.2119674485803263e-02
    -3.9066950321750581e-02 -1.4884328315648312e-01
    -9.8601033517073652e-02 -6.7227390932426398e-02
    -9.5716416906296092e-02 -3.9586238886025832e-02
    9.9567987770430730e-02 8.5294401335237760e-02
    -3.5353686168524037e-02 -1.2282111652923146e-02
    -3.5869623620076646e-02 -4.6739918929838489e-02
    2.4105162736216892e-03 -8.3706185305178094e-02
    -6.1086050485137426e-02 -8.5415134207099022e-02
    5.3051549984481583e-02 4.5417754465112261e-03
    -9.8032455293593959e-02 1.6686465925068967e-02
    5.2495080476458955e-02 1.1051295805228421e-01 1.2536631039058185e-01
    4.0352111826281151e-02 -5.0761823464981766e-02
    -1.1567971888485863e-01 -6.2513494040942641e-02
    -6.4565468243859364e-02 -3.0586308210764031e-02
    5.1882228709037810e-02 2.3455081482940335e-01 2.9894878795544677e-01
    2.0191225645416003e-01 1.4708584106398149e-02 2.6459198790039121e-02
    -2.1443242669145823e-02 -2.8522850110686525e-02
    -1.1395575533192090e-01 1.4644341562716788e-02
    2.5592253774429339e-02 2.0934666794950807e-01 2.2011286517459028e-01
    1.4770344312056954e-01 2.9219730041951476e-02 1.7638696949525128e-02
    -5.0374331360984854e-02 -1.9421384371261289e-02
    -1.6446068636618173e-02 -1.8843616894961956e-02
    2.7627126549700971e-02 5.6670623001164065e-02 1.4014362992585752e-01
    1.3783710136362577e-02 -1.3765679720633535e-02
    8.6368701617526966e-02 2.4146065679731696e-02
    -3.4927704736367384e-03 -8.5726473520790714e-02
    -1.0888077061705722e-02 5.2729633247867802e-03
    -4.1816437220196657e-02 2.3616427885635352e-02
    4.5711625121222038e-02 5.2789371110949626e-02 1.1487688067846759e-02
    9.1315338705829988e-03 8.5495614564580422e-02
    -2.0722872457885348e-02 -2.7980613858355468e-02
    -4.5907882593336342e-02 -5.1307999496541377e-02
    -5.1824997111266147e-02 -6.3085580299218815e-03
    -2.7740168778633025e-02 -1.8428308622927717e-02
    5.5986621971874366e-02 1.4612870729155225e-01 3.9022520104210048e-02
    -2.6298249592085293e-02 -6.7324246852699804e-02
    -8.8443608693011808e-02 -8.0773282048892753e-02
    -4.8227025325179161e-02 1.8222773652629309e-02
    6.6910056657999345e-02 1.0808478127652306e-01 1.0371442133398051e-01
    1.2865743792262091e-01 1.2690421229675516e-01 1.0292843048969297e-02
    -7.0464802265792881e-02 -5.3900286233713311e-02
    -1.7984296368759933e-02 -2.6231379280469827e-02
    -3.0252790233754431e-02 2.2235366479616075e-02
    1.3890950656511114e-01 3.3981632386968746e-02 2.0373124105155002e-02
    -3.6441569777086839e-02 -8.1977138224388804e-02
    -6.2598437270402041e-02 -6.4953963323001837e-02
    -1.2018767880297236e-01 -7.1340872480982295e-02
    -1.2456251967714146e-01 5.0552382312262778e-02
    4.3099350835560449e-02 -8.0431448634499247e-03
    -1.0473915381202981e-02 5.6936392499152752e-04
    6.4124924185592055e-02 -2.3912525282103789e-02
    8.4516945217673646e-03 -2.2982640781161540e-02
    -4.4900064821014204e-02 3.5373041472050375e-03
    -3.1840693930615296e-02 -7.6819616165857757e-03
    5.5030618825219479e-02 1.5759242852959313e-01 1.5043267539349897e-01
    1.1395934347258023e-01 1.8747110541811541e-02
    -6.0317653902530070e-02 -3.9101245263433178e-02
    -5.8844586149029300e-02 -9.1085994801857653e-02
    -3.7776978638402854e-02 4.9460786120670862e-02
    1.0302004747398448e-01 1.6142437085875844e-01 1.0343019146804938e-01
    2.6727881578462034e-02 1.7439026285340321e-02
    -2.1892941450041035e-02 -3.0308388231846648e-02
    -2.1661952406465262e-02 -4.5278783276465756e-02
    4.4268732342898518e-04 3.8096503984844217e-02 1.1522858720230127e-01
    1.4997999806966691e-01 1.0163667515014610e-01 3.7755116261801731e-02
    -7.0310493183364228e-02 -4.5723372065439694e-02
    -6.0312492482969195e-02 -1.2231516095967052e-02
    -1.0527079959485075e-02 5.9897181976478378e-02
    7.9665348529220220e-02 1.2319642082723080e-01 1.5062709760226961e-01
    -1.5039515159165037e-02 -1.2365048565690692e-02
    4.5610747594068426e-02 -3.4223337021762820e-02
    -4.8527445008342482e-02 -3.3971393993394383e-02
    1.0156674924578420e-01 1.0856267646575277e-01 1.0179845414409541e-01
    -2.3400043905463595e-02 -3.0047192607786295e-03
    1.3588363846425611e-02 8.9281053370904140e-02
    -2.6643258341040366e-02 -7.2309758673652913e-03
    -1.4682994702378995e-02 8.7832248276509747e-03
    2.7819595859281804e-02 -1.1167646407391518e-02
    -3.5720994447375455e-02 -9.5876791871027017e-02
    3.4613415312084138e-03 1.1600959710007146e-01 2.9690545958186602e-02
    -5.5699311898931882e-04 -6.6434109456065385e-02
    -5.0872787766383896e-02 -1.3967842933297275e-01
    -8.5357776414297717e-02 -5.3703185272418665e-02
    6.9132517466234264e-02 1.0489517379718072e-01 1.0113401516239297e-01
    8.2290749967420446e-02 4.7874524923996582e-02 6.4472017554053199e-02
    -5.4905965647629090e-02 -1.0393295898266378e-01
    -7.6411702664427525e-02 -8.7203137181499583e-03
    3.3996862815910425e-02 8.0878976765805535e-02 1.2778247573817728e-01
    9.0571624083419455e-02 2.1473325517337077e-02
    -1.2521606133886434e-01 -1.8400926574569715e-01
    -1.3159855155507896e-01 -1.1879766902631554e-01
    -1.4758171985663460e-01 -1.3255198259224474e-01
    -4.0175187698701147e-02 7.3030065860037255e-02
    -1.7631033687880059e-02 -9.6432167348012063e-02
    -1.0922479554649649e-01 -1.4870708138677813e-01
    -4.4578436800069988e-02 -6.6877324866659843e-02
    -1.0720965653141461e-01 -1.2406968980166076e-01
    -7.1050245573499815e-02 -3.7934016684185272e-02
    -8.6541399290046575e-02 -3.1421515175829036e-02
    1.4544375473656440e-03 1.2594401815520833e-02 1.0012391377174462e-01
    7.8583653844373824e-02 -4.1736403553736014e-02
    -1.3028579421227748e-01 -7.2509821938306032e-02
    -7.9587460750503311e-02 -5.1027380646820664e-02
    -5.4558251734668488e-02 4.7865422463672119e-02
    1.6556765493783845e-01 2.5641586157484686e-01 9.0462237026951123e-02
    4.5847174198629437e-02 -7.7241353251549474e-02
    -7.6905638538151827e-02 -1.1678018223953356e-01
    -4.6079828987632208e-02 2.5499951207764722e-02
    1.3449039957492454e-01 3.1693072902271574e-01 2.9774965873388431e-01
    6.5478271526579215e-02 1.1421223190280778e-02
    -1.1162236275950475e-02 -3.2269960643972334e-02
    -8.4248087084162565e-02 -5.7300027557798366e-02
    -5.8527686664171354e-03 8.8241283435724224e-02
    1.9060250414385288e-01 8.6689036646671380e-02 2.4499259521509560e-02
    -1.6866414987057876e-02 -1.8208637460565506e-02
    5.0289816928845749e-04 -7.2462345011197879e-03
    -7.9313554432905442e-02 -5.9624553475994872e-02
    3.2877728490280575e-02 8.6455836894648221e-03
    -2.5826848416057199e-02 -1.0402469058899275e-01
    -5.9574359742832469e-02 3.0659733358057436e-02
    1.3523111310925559e-02 1.9509323414666855e-02
    -4.9977648209622999e-02 -1.2045112238411285e-01
    -7.9653166927997940e-02 -1.1848024319587246e-01
    -1.2798110225360848e-01 -6.4146708605258548e-02
    7.8878228335054427e-03 3.9148756062455138e-02 1.1673089010667531e-01
    7.8934156021166310e-02 -4.1573278282803036e-02
    -3.9661340817534668e-02 -1.5716863673711720e-01
    -8.4813528922748557e-02 -7.2776811006343742e-02
    -2.4077728534847360e-02 1.4269890289420158e-02
    3.4391809823576480e-02 1.2086596523995628e-01 1.0867678811197551e-01
    1.4837177875648722e-01 4.9529517006208126e-02 3.5934548949434673e-02
    -1.4988465543837277e-02 -6.1283301652395955e-02
    -6.9374296359706530e-02 -5.0556232960109505e-02
    4.2070369083000360e-02 2.9480013434863398e-02 1.5246745715053520e-01
    3.4408233720235472e-02 1.1088208516183268e-01 1.4984387409012340e-02
    -3.7493216198972709e-02 -1.3326938298766514e-01
    -1.2378256402185148e-01 -1.4924905905933000e-01
    -1.4703766385573058e-01 -8.2941652789833370e-02
    8.4133781514815140e-02 4.7843618381378641e-02 5.0123365990072728e-02
    -1.4415126996324809e-02 -1.2230129374470994e-01
    -6.2719155788296482e-02 -1.1087955302631848e-01
    -1.2127845601153570e-01 -7.7827828324322779e-02
    -1.2020629830023423e-01 3.8014336230346867e-03
    -2.1510589146468750e-02 -2.9497983578325070e-02
    -1.6653028583716322e-02 -2.7931114031872789e-02
    1.4345431323105281e-02 8.4123012788666796e-02 3.2950834902292225e-02
    -6.6967399989211154e-02 -7.5292668863196396e-02
    -1.2017002385342061e-02 -4.3989025290542862e-02
    -4.6737631850771025e-02 -3.7601931777915133e-02
    1.1243412685428897e-01 2.9983974608238562e-01 2.5035494059511010e-01
    1.0236739292166755e-01 1.7780514449363353e-03
    -6.7096867659342946e-02 -1.2707900364820829e-01
    -5.2296619347280110e-02 -1.7033353756830134e-02
    -1.3101807110252358e-02 1.9180372070463111e-01
    3.4109088444557573e-01 2.7736582824122541e-01 1.1848401026670279e-01
    3.9238614754161905e-02 -7.8426632980302613e-02
    -6.9902787671610650e-02 -2.8781447448100357e-02
    -3.7368484597213841e-02 -2.0245354342763006e-02
    1.6739763662540752e-01 1.1234453655223593e-01 1.2410375352960992e-01
    -3.0444366913804227e-02 -5.1218393887898866e-02
    -4.9492484750368682e-03 1.8071284340949637e-02
    -8.7294196723246217e-02 -7.4626040984651795e-02
    -6.1032962399151340e-02 -1.0817995238864472e-02
    -5.9202519793991291e-02 -7.2022410694072309e-02
    -9.1882689705674037e-02 -1.0143368870530665e-02
    1.2901465685201972e-02 1.5131310426055117e-01 1.6776022682357641e-02
    -9.9256068045567858e-03 -1.2941406730750724e-01
    -8.2672477803557826e-02 -7.7422610151033036e-02
    -1.4522818688400707e-01 -1.9220236407632790e-02
    6.0312899269409671e-02 1.0706084079736231e-01 1.5589866358465146e-01
    8.5353002450358928e-02 3.8152503738226096e-02
    -4.1335818803802542e-02 -1.3328507795738165e-01
    -1.7092446043129403e-01 -3.1481307252271204e-02
    -3.5668971716279939e-02 4.8867865051684459e-02
    1.0270048335149073e-01 1.7781947975022427e-01 1.1332649151314041e-01
    9.9367266197591828e-02 5.5372206461530446e-02
    -2.1613703350226401e-02 -6.6835668606139102e-03
    1.8801621529562093e-02 4.5065771232986555e-03 4.6410138959138168e-02
    5.6848294767632791e-02 1.3572943516738434e-01 7.6544041184309047e-02
    4.8282063533391491e-02 1.0418290164034002e-02
    -5.7946635251969268e-02 -1.1235590464415088e-01
    -1.2560130678362316e-01 -8.5634977327400080e-02
    -6.5981322932192749e-02 -4.9587636273018917e-02
    1.0274374809312918e-01 7.9848916489519382e-03 2.5360646959951078e-02
    -3.7555022826780797e-02 -4.7815643294646604e-02
    -9.9621479024708942e-02 -2.9559852981874357e-02
    -2.0192039170928610e-02 -1.0389531284223728e-02
    -1.6289248327691817e-02 -3.2511830856805465e-02
    -1.4509170261186199e-02 -1.2019169835196545e-02
    -5.9630691341462642e-02 -5.6025016300217199e-03
    5.0800728936997518e-02 3.3046770445274223e-02 4.0677140608842630e-02
    -5.0018317088101644e-02 -4.3723285050683118e-02
    -6.9356940197789624e-02 -3.6505850976189108e-02
    1.1644758665438385e-02 -5.7248438724396790e-03
    1.2505985421765076e-01 1.1490658445593711e-01 1.6534396790693384e-01
    9.1423759450677683e-02 4.1300179946660513e-02
    -4.7944413526527258e-02 -3.9569634628296359e-02
    -4.8557855004395425e-02 -4.2027468181743285e-02
    2.9119195741234725e-03 9.8642864811079325e-02 2.3171870102631767e-01
    2.2697257493412853e-01 1.2225927109587435e-01 2.1661656731217723e-02
    -6.9158196190714380e-02 -3.3237334378494496e-03
    -7.6251138139811561e-02 -2.7016724470588328e-02
    2.3933995542348662e-02 8.7148574288745562e-02 1.9517166944816233e-01
    1.4853130177180626e-01 1.1861180857490705e-01 5.3472631621709461e-02
    -5.3753050044109192e-02 1.1832022571794158e-02
    -3.8468607652574404e-03 -2.2394132916335385e-03
    -6.4633011755113393e-02 -1.3770119438556279e-02
    5.3304267689787764e-02 5.0839900035438389e-03
    -7.7349998545959827e-03 1.4534889856827782e-03
    -6.6045760148459823e-02 7.7038412001000978e-02
    2.0404809022971041e-02 -1.3854368434801435e-03
    -2.6881894522116801e-02 -1.8637176195891631e-02
    -5.6986372865375362e-03 -3.2275136628465810e-02
    -7.3429241972791895e-02 -6.1245202918709517e-02
    5.8595767646510803e-02 5.7594526376328004e-02 4.5619017173912903e-02
    4.6723024324694003e-02 -4.8200661249150317e-02
    -1.3594132110745574e-01 -1.1782088626483836e-01
    -8.7729365517296667e-02 -1.6989708439460856e-02
    -2.7479397033702637e-02 4.7697525087544948e-02
    1.6046981960993070e-01 1.4300745563891173e-01 5.6006167664074340e-02
    3.6994663966444845e-02 4.3900781768425608e-02 1.9540618311610507e-02
    1.9795841423886560e-04 3.0470524573676654e-02 6.1199525130155780e-02
    1.8497742063030213e-03 1.1195720998859417e-01 7.8284012855255658e-02
    7.2791783017141995e-02 -8.1395660033592790e-02
    -1.3360774517339952e-01 -1.5625591046204670e-01
    -1.2690840726545169e-01 -8.8030356372566954e-02
    -4.6932973630408222e-02 -5.3885507419835305e-02
    4.6142509763411041e-02 5.9688359787636341e-02
    -4.6169378993985481e-02 -1.0033661157669539e-01
    -1.2570164437888526e-01 -1.2996616305138323e-01
    -1.0635975958397245e-01 -4.5010657781333355e-02
    -2.5048099890931336e-02 -8.5818337531457164e-02
    -5.0464819382800155e-03 -4.7772143439154792e-02
    -5.3876917985023039e-02 -6.5131483382204106e-02
    5.3807250147419380e-03 -2.8752096248035344e-02
    -4.7677473992622905e-02 -3.0502554715162146e-02
    -3.0213362872056400e-02 -4.3258433438285455e-02
    -2.0884832547861845e-02 -2.5837060919413891e-02
    -3.2384756002635177e-02 6.7841930438116926e-02
    1.0879745857360965e-01 2.0816856157054947e-01 8.3881217737003230e-02
    7.1856698948307412e-03 -4.7301784085359989e-02
    -3.3657703702801516e-02 -7.1815327565418641e-02
    -1.3699653990131734e-02 1.1827888120169923e-02
    6.7198367931761691e-02 2.5164190262911496e-01 2.5252594759405489e-01
    1.3841792895357416e-01 -9.0860119432571145e-03
    6.1009701932760591e-03 5.3872400204417617e-03
    -4.8462869006296067e-02 -9.8248556424972308e-02
    4.1148357545960801e-02 8.4139942903359008e-02 1.1624333220656496e-01
    2.1484732695003297e-01 1.1062254840937662e-01 2.0816419241590129e-02
    7.9654645336739452e-02 2.5655941644878982e-02
    -3.6819480967903891e-02 -1.1433819054757714e-01
    5.1473627756023974e-03 -3.2825699335057745e-02
    1.1130586287170454e-02 -2.1024628314942759e-02
    1.8389195489910651e-02 2.8376269459856406e-02 8.5463566552554882e-02
    1.8424418825896363e-02 4.5746698608542163e-02
    -3.7898847559366441e-02 -8.5807129470277022e-02
    -9.8571071321892439e-02 -8.6226120711590734e-02
    -2.3757000123775171e-02 -1.5919046712787859e-02
    -5.6866315389031231e-02 -4.9775491949942324e-02
    4.7764807382389730e-02 6.7056586027088305e-02 3.0248951073678965e-02
    -7.4133072818772364e-02 -6.0899467969557725e-02
    -1.4886821886537063e-01 -1.3971593987521666e-01
    -3.6528223332530266e-02 -2.8420736762164910e-02
    -1.5348256360605977e-02 1.3211140787627032e-01
    1.8050694749160867e-01 1.4137304872027287e-01 4.5637168683566522e-02
    3.8211849013714487e-02 5.1201353938492532e-02 3.4553264799425706e-02
    2.4936924118935729e-02 -2.2913646883394909e-02
    -3.9361282381702558e-03 7.2042098127825055e-02
    1.1425704289756450e-01 8.9211200573380778e-02 6.3407665590738918e-02
    -1.0219275262527177e-02 -9.2906713628093898e-02
    -8.7570807421306074e-02 -1.2172166499626820e-01
    -1.0959749379240376e-01 -8.8471024719893931e-02
    -3.7406946604641618e-02 1.2342761310925500e-01
    4.8130548326775595e-02 1.8580130886175394e-02
    -1.1691833400020042e-01 -1.1405735067933008e-01
    -3.2391289161970330e-02 -8.9744025925925661e-02
    -5.7148356991215711e-02 -1.0437990136086975e-01
    -1.2121592129752418e-01 5.9030018691307029e-03
    4.7994685885384717e-03 -2.7555919158055081e-02
    -8.7916478451031774e-02 7.6501201678068004e-03
    7.2719728065043662e-02 -2.0270476099486453e-02
    -6.0891915387767719e-02 -2.1439796232379318e-02
    -1.1648644054914442e-01 -3.7154677056427901e-02
    1.8858102176534965e-03 -4.2780953187014970e-02
    3.5766882582720136e-02 1.2609085013287794e-01 2.3302930963405522e-01
    1.3716875427709765e-01 7.8979598916692290e-02
    -4.3042725071889429e-02 -8.2404575471015526e-02
    -1.0703569306684910e-01 -1.0493756614016499e-01
    -2.6795636486566392e-02 6.3371348171885306e-02
    1.9092978838307118e-01 2.7701054985780477e-01 1.4494636626685412e-01
    2.4645906029243918e-02 -9.2147873548878625e-03
    1.0684187789860904e-02 -3.9352351203998659e-02
    -2.6026841085267118e-02 -5.7326713751043756e-02
    8.2962896103306275e-02 1.7490781078328385e-01 1.5751102600072059e-01
    9.3282405379423936e-02 5.7332013587741905e-02 2.5949968733128794e-02
    3.0123604718163659e-02 -7.7833509091360678e-02
    -2.0200112569573787e-02 -2.7277925111638640e-03
    1.3297083569481493e-02 -4.6250735221255324e-03
    6.3222102807464112e-02 -1.3062936194274868e-02
    3.2873351296463832e-03 -2.3116323933147560e-02
    -2.6551490232417777e-02 1.6222546415335628e-02
    -5.4277618106883432e-02 -7.0479477363153117e-02
    -1.1026377164645981e-01 -1.2327430960684031e-01
    -1.2881818328450986e-01 -1.0855405029897940e-01
    -9.1669372314367604e-03 -1.2701459550986123e-02
    6.8794274570623065e-02 1.4349102289198395e-01
    -2.1120315608176093e-02 -6.2068816916584550e-02
    -6.7444851703349018e-02 -1.5641636776520904e-01
    -8.2920679791335439e-02 -1.0279928623707552e-01
    1.9259687143163950e-02 7.5036579838349937e-02 1.1752115264521358e-01
    1.2094682693435918e-01 7.1352527260379883e-02 8.6736853251896298e-02
    -1.5500871030209945e-02 -2.3872986992689686e-02
    -4.3166938616364309e-02 -9.2299621595696227e-02
    1.8590452835502754e-02 1.4054594982534318e-02 9.1952910362946047e-02
    1.4630251935343783e-01 1.1414997786119981e-01
    -3.2803972109812945e-03 -6.5509983800983107e-02
    -9.7885731615928978e-02 -1.5885116177438260e-01
    -2.0304369409921155e-01 -1.6320000365211604e-01
    -1.0368115472973220e-01 -1.2285534390276796e-02
    9.2242949746579025e-02 7.2718491393998566e-02 1.2950976621353329e-02
    -3.3633648646822750e-02 -3.6460240251014221e-02
    -1.2297817864616312e-01 -9.4684344720681116e-02
    -1.2947286823175030e-01 -8.8665557593221936e-02
    -7.7692507276261674e-02 -1.3179810015978986e-02
    -3.3754467821058801e-02 -2.1639320605637904e-02
    -6.5099146389163455e-03 2.4548124030461554e-02
    5.5796687987653533e-02 -1.4339515853459158e-02
    3.7126251278495490e-02 -5.4695346340715850e-02
    -1.1788780874073808e-01 -6.4026386691504303e-02
    -1.0193311860463629e-01 -3.5173617831599398e-02
    5.9061485198924353e-02 7.3269036485641079e-02 1.4559357553549371e-01
    1.4996335411940753e-01 9.7482402058599274e-02
    -2.6959372038724536e-02 -1.0765090815780259e-01
    -5.1604892782225020e-02 -7.5894873239182523e-02
    -1.0309249095020839e-01 3.3441476776685033e-02
    1.6461794970421706e-01 2.6053947472055766e-01 2.9578251761877539e-01
    9.1782754099055008e-02 -2.5986067409516547e-02
    -6.9626426192049576e-02 7.2346002953747072e-03
    -7.4276199623437913e-02 -6.2404218939643499e-02
    1.8068891563363790e-02 4.1283054423025670e-02 1.5660928819423001e-01
    1.8210540767174976e-01 9.8649515472892177e-02
    -4.7508303319169616e-02 -2.1308161634138793e-02
    4.7654829738266721e-02 -5.7874631294340215e-02
    -1.2374672655906301e-01 -8.8534342540497787e-02
    3.4300832983098974e-02 2.1793223619811265e-02
    -2.8929699374394456e-02 -1.3225639381048494e-02
    -6.7579405615143320e-02 1.8401426288198279e-03
    1.0448315413895858e-01 1.5174113925046580e-02
    -4.2559234640617331e-02 -1.1091300612733253e-01
    -5.1046719671774411e-02 -1.1838709778733655e-01
    -1.5915012235877288e-01 -4.7928757139458857e-02
    -2.2874855781147889e-02 3.1922517474733861e-02
    1.3352156035657056e-01 5.3095844656357055e-02
    -6.9261007358560698e-03 -3.4651264513642255e-02
    -8.5933395577897004e-02 -1.4997254709094104e-01
    -7.9631228310850691e-02 2.6171247005813424e-02
    2.8253958951173115e-02 1.5921122041650862e-01 1.6196529747619368e-01
    1.4322468207298883e-01 1.0295938037904254e-01 7.1497776269944949e-03
    -8.6785017629903410e-03 -1.0859491707422048e-01
    -4.5137293841870575e-02 1.4903459824205639e-02
    -2.7325672425412648e-02 7.5543951250925168e-02
    1.4892324111770669e-01 1.2738288327628472e-01
    -4.3548775903924216e-03 -3.7710830014592123e-03
    -9.5230532824417596e-02 -1.2128786013683726e-01
    -1.6307409802301698e-01 -7.8293697101308887e-02
    -1.1949578954627019e-01 -1.0235002434499473e-01
    4.5469006551521342e-02 3.5678280969439598e-02 5.0480176167756246e-03
    -5.3798739595249376e-02 -9.1046333587364747e-02
    -4.7381045273940811e-02 -4.3749439669963315e-02
    -2.6096234638253685e-02 -2.7827542346172150e-02
    -1.3102694537580625e-01 2.5066766177667434e-02
    -6.3922876773203685e-02 -5.7616683179767689e-02
    2.9994597135996351e-02 5.1753057338111752e-02 1.0520525586659209e-01
    1.0551574589532017e-01 7.4081104654511482e-02
    -2.5619544796251503e-02 -7.2672633699989247e-02
    -1.0528310267796376e-01 -1.0137385461412564e-01
    -3.4301531680491324e-03 2.8201814314832485e-02
    1.3766581965476132e-01 2.5502644678431335e-01 2.5354564617717568e-01
    7.5125925439323754e-02 6.6071587563649531e-02
    -3.9655331514727145e-02 -1.7819788904085431e-02
    -4.1883684088729910e-02 -5.5899865317585874e-02
    7.1959098140667449e-02 2.0735113922237758e-01 2.8751709415822257e-01
    2.2789832862767351e-01 1.1468846353993346e-01 2.6228875623020174e-03
    -2.4126122760739197e-02 2.0287532439816285e-02
    -3.3262556293557531e-02 -3.0959584597182559e-02
    -5.2815867450146055e-02 1.8885931306495005e-02
    1.1569829158045183e-01 9.4104997775900576e-02
    -3.8040899514421245e-02 -6.3239761185452922e-02
    -9.5213742236425161e-02 2.7483692350085593e-02
    2.0143673791329034e-02 -4.6326658340997251e-02
    -1.1312592371547371e-02 -6.2380200096215595e-02
    -3.5273835825482262e-02 -8.4004022164339831e-02
    -9.1414208012115680e-02 -1.0051994139951269e-01
    -3.9955995853779770e-02 8.0865883257261323e-02
    1.9669302222094686e-02 -9.8082752727716091e-02
    -9.8317564824954726e-02 -3.0821023695318396e-02
    -1.6016512854982845e-01 -8.8436888204891095e-02
    -3.1438713970441692e-02 4.7686449542833145e-02
    8.7936561477676090e-02 1.6194405295825470e-01 1.2801014857332838e-01
    -9.4688350005016852e-04 -1.2511968548570878e-02
    -1.2056729110195635e-01 -1.3697407429898042e-01
    -8.3450932600038191e-02 4.5645482680832551e-02
    6.0202108140381294e-02 1.4927539382211172e-01 1.7727047144666000e-01
    9.7687968274388082e-02 9.7293929340723340e-02
    -1.8415557803309552e-03 -2.6833155501326655e-02
    -1.4700409685683533e-01 -1.9400810025668483e-01
    -3.5277241169254459e-02 3.1557250789733543e-04
    2.1030791278321265e-02 7.7084570424962875e-02 4.0563222801654600e-02
    -3.6595173357967699e-03 3.8036453890973286e-02
    -7.4666860285140177e-02 -1.6648450359583658e-01
    -2.5081972558656712e-01 -1.4518151405877869e-01
    -1.1702418934569320e-01 -1.3668237138546754e-01
    4.1253906736142432e-02 5.0809115006593936e-02
    -3.9691542496875204e-02 -7.5662209758747073e-02
    -1.2522329690393902e-01 -1.7127885788295433e-01
    -1.3414966876689843e-01 -2.7152552635651854e-02
    -1.1374018555551026e-01 -1.3686619178138598e-01
    -6.5254900697091006e-03 -1.1634918507509258e-02
    -1.4863611309924120e-02 -1.5224867840780811e-02
    6.7919178993391602e-03 2.1776003785566007e-02 4.0049262971452074e-02
    4.9684647817863165e-02 -7.1196903092746497e-02
    -1.7147037149028993e-01 -6.4110835317064435e-02
    -6.7239956974736240e-02 -9.7310895968016953e-02
    -3.2240412497686012e-03 1.2088408443762685e-02
    1.9674103947564042e-01 2.2501403257271135e-01 9.9244244637806789e-02
    2.6553848184147247e-02 -1.0017986393740631e-01
    -7.7458218307972282e-02 -4.4394237361330628e-02
    -1.2074371498046250e-01 -2.6031941418388077e-02
    1.2714781163072217e-01 3.5423337091153234e-01 2.7569782740376891e-01
    3.1684661446204625e-02 -1.6053108773277662e-03
    -3.4374896974896318e-02 -7.9580773458319265e-02
    -5.4343323194625648e-02 -1.0194980455621006e-01
    -1.3973004910893557e-02 1.1920335351400103e-01
    1.7194171674825284e-01 6.4670902761007024e-02 6.4158464987247015e-03
    -4.6926647838192392e-02 -2.2493172113676501e-02
    -4.1831775299968441e-02 -8.3318218663506360e-02
    -1.0045698623466556e-01 -6.1921573518329970e-02
    3.7019709334235748e-02 -4.6982867972438995e-02
    2.5531076937612791e-03 -7.9940803204520183e-02
    -3.7926240427173484e-02 -3.9655452853470996e-02
    5.3252433489912373e-03 9.4204825531763771e-03
    -1.4440223480187320e-01 -5.4998524657267955e-02
    -1.2260719748070857e-01 -1.3944245814974432e-01
    -1.3884838537186697e-01 -2.6497453078005582e-02
    7.6121194147741253e-03 1.1023534039579463e-01 1.5976958978582043e-01
    1.8922709513080907e-02 6.8195482325169145e-04
    -8.5525858363020305e-02 -1.3216529447524608e-01
    -1.0435911119850080e-01 -5.5155555077847813e-02
    -3.7250732051721837e-02 9.3362443270781234e-02
    1.0014469083714338e-01 -2.0542951794294789e-01
    -9.9546242676840521e-02 -9.5829261379609523e-02
    -5.9040505389680600e-02 -8.1028824115362150e-02
    -6.0456360206252648e-02 -4.9946742611790960e-02
    1.1364549330309520e-03 -8.3222127570082821e-02
    -7.0689554713419464e-02 -7.6902772113843595e-02
    3.3718335516792396e-02 4.4616900845444070e-02 2.9781103556152436e-02
    1.2129632043814326e-01 9.9554506719501293e-02 1.4342112144620020e-01
    9.4437331178941791e-02 3.0277216539740481e-02
    -6.4564084018962034e-02 -6.8651402470590678e-02
    1.0947446759485541e-01 1.1872077377580169e-01 6.8627267519318622e-02
    1.0162126073603676e-01 3.9016099960295904e-02 6.9481066393536253e-02
    8.8676276078161642e-02 4.9881117203115798e-02
    -6.9922252085841026e-03 -5.4500253079929707e-02
    1.8176637903581639e-02 6.1785350779284064e-02 2.3799649010786197e-02
    -5.9800441225079042e-02 -1.1275015194855698e-01
    -1.0348159977271076e-01 -8.9827318321939673e-02
    -2.3079065459591291e-02 3.3889184229074372e-03
    -2.9325560235673977e-02 3.0644900691586104e-02
    4.3234014415690553e-02 -3.1170756864642934e-02
    -5.4055484342240119e-02 -7.8539029821135087e-02
    -1.0041835231177193e-01 -1.0897611747803125e-01
    -1.0122857809651094e-01 -1.5025048085555204e-02
    -6.8230850981260499e-02 4.5135273507295695e-02
    -5.1786600990036083e-02 -1.0590164238472802e-01
    -7.3553040248726900e-02 -4.6161848804801175e-02
    -6.8396661176454085e-02 -4.4642777039879337e-02
    -1.5047936332142863e-02 -3.1537972597525167e-04
    -4.9463548101153935e-02 -1.6019289676044281e-03
    -8.0816226379420458e-02 -8.0476038650935777e-02
    -1.3216019830739842e-01 -1.1311605227627562e-01
    -3.5494839565642693e-02 -4.3636176904520471e-02
    7.6992967430173795e-02 5.7389576784840315e-02
    -7.3333881569300208e-02 7.2518027529934068e-02
    8.1717715343131575e-02 1.2828505764244956e-02
    -2.7250016598896098e-02 5.3438063188296957e-03
    4.7270000216797579e-02 8.3095275362992688e-02 7.3037037403287083e-02
    -2.2860191037309994e-02 -5.1706951139248891e-02
    1.0588109970928428e-01 1.3347849631101705e-01 1.4770521307347365e-01
    1.2496547098618384e-01 2.2084011321397684e-01 1.8872078177652651e-01
    1.4814179669795272e-01 2.8349160712918885e-02
    -6.8331575268870681e-02 -1.2094732101530588e-01
    -2.5842085050051353e-02 3.2352912234898765e-02
    1.3387887854531089e-01 7.2078689562484102e-02 7.7764563661335731e-02
    3.9131885630617246e-03 -6.0279846087539404e-02
    -1.0393188285658257e-01 -8.1300535302913465e-02
    -1.7409863393526953e-01 -1.6583819899796901e-01
    -1.3474197038309665e-02 -2.7907521201611961e-02
    -2.5554396993784735e-02 -4.6819305844836234e-02
    -3.6213391747364813e-02 4.2620566032398943e-02
    -9.0563407643840070e-03 -3.1561322612410549e-02
    -1.3284760648129845e-01 2.1734183422487785e-02
    1.4027140353039888e-01 1.8741912958834736e-01 1.3957522726854887e-01
    7.1348348344042203e-02 4.5310707218087873e-02 1.4445187111646937e-01
    5.4088546402060032e-02 -3.9046640791533103e-02
    -6.2722680466551911e-02 1.1492102174334091e-01
    1.8745632871816095e-01 1.0850022103238882e-01 1.0347237918785360e-01
    8.6261381984016658e-02 1.0285423348325345e-01 1.3842364693224540e-01
    1.6283605854155832e-02 5.9006575769676592e-02
    -9.6946465336611456e-02 -5.1704035357317199e-02
    2.5645324905366300e-02 -4.4649730905753970e-02
    -1.0623493113956882e-01 -5.8459682426481377e-02
    -1.8506538259132430e-02 -8.0584868531377710e-02
    -1.4376306888750864e-01 -1.1240856087367337e-01
    -9.8408970112392177e-02 -1.3461961503080658e-01
    -5.5065279830523721e-02 -5.0122331693386604e-02
    -1.3592373499986640e-01 -1.3738236786737412e-01
    -1.4518339008055209e-01 -5.9076582430350008e-02
    -1.5525979482416161e-01 -1.5200869449905069e-02
    -8.2667380887344905e-02 7.3796707315770902e-04
    1.0210240503034729e-01 8.8644379076789990e-03
    -1.1553684328342029e-01 -1.6551877484281166e-01
    -1.4033593193152477e-01 -8.3245685432329380e-02
    -6.4387824852987108e-02 1.1038678683621675e-01
    -8.6438895505985033e-02 2.7278835282588738e-02
    6.3906485465561380e-02 1.5615742105035051e-03
    -1.0860776353439941e-01 -1.8410105830712856e-01
    -8.9915683918020045e-02 2.7283185032248140e-02
    5.6688441884842074e-02 6.0808702097967689e-02
    -5.0755947973771080e-03 8.5946518223380980e-02
    1.1962058713031103e-01 1.4411308309654006e-01 1.2191919440096546e-01
    1.6450852041905908e-01 2.2238420026422356e-01 2.4892775955892624e-01
    1.3700538294002593e-01 5.4757232712953074e-03
    -4.6128389616469902e-02 -5.8564228004853766e-02
    9.0560818159431275e-02 2.2630466807174585e-01 1.8379020216579614e-01
    1.5276922191088640e-01 2.1395709355263928e-01 8.4297976274493813e-02
    -4.3441727563221240e-02 -5.4591396848402855e-02
    -1.3137677394442254e-01 -5.9107665736463012e-02
    -1.7199718205276059e-02 8.4486558161587941e-02
    5.6034693637043255e-02 -5.0642350853439037e-02
    -3.9221677511881430e-02 -1.2253815476435534e-01
    -1.3519766134125136e-01 -1.5115522431472367e-01
    -1.8686057731757255e-01 -8.3633568658367824e-02
    -9.8567550257791417e-02 -7.1185765114471057e-03
    -3.9669768715617469e-02 1.3628684068394981e-02
    4.9045722920263116e-02 2.8559015012461376e-02 1.2817408929057458e-02
    -2.5330647139376713e-02 -1.3391841427180848e-01
    2.9612806338642425e-02 1.0013866339082916e-01 1.4639205927426943e-01
    1.4419249929123945e-01 1.8499966866264486e-01 7.6381315677332168e-02
    2.6968933181259005e-02 8.8705789967374674e-02 1.3025546721431171e-02
    -6.1757213503929473e-02 2.5465882745432877e-02
    1.5492973010554367e-01 1.4386559424693096e-01 5.8713091084339204e-02
    6.4389442029181565e-02 2.7225584514999480e-04
    -3.9871558128751301e-03 6.8207964947404387e-02
    -8.2623707414662805e-03 1.1326212222851269e-02
    9.1781709401077535e-02 9.4400262891573647e-02
    -9.9959428391538183e-03 -8.0327732876597085e-02
    -1.7775084053764051e-01 -1.2717056611445432e-01
    -1.5996078347248219e-01 -8.7884891308548568e-02
    -9.6795104161699966e-02 -2.2446431026430080e-02
    9.3435184084023348e-02 9.2946826741813107e-02
    -3.3752330496568374e-02 -3.3734960947544294e-02
    -2.4815562771574602e-02 -3.5506744654632071e-02
